200,784
0.070907110457,0.0675148057739,-0.0907500285571,0.07958476721,-0.0639505882026,-0.0951785380791,0.0174354665016,0.0271342605324,-0.0828264716061,0.0226129553831,0.101898781369,0.00242926816048,0.0432389068745,0.0671104362855,0.0794073641671,0.0323026865556,-0.0738474762329,-0.0199911478103,-0.0262311910428,-0.0916888054839,0.0407190798396,-0.0117539253632,-0.112837077775,0.00542676771348,-0.0273993662645,0.0765163116151,0.177382905353,0.0899595501104,0.019860568499,-0.0876191296198,-0.0540705321224,0.0542449066514,-0.0211126077409,-0.157399869046,-0.0749642933799,-0.0309297777879,-0.0790207724808,-0.139394953704,-0.0223026672519,-0.0209226730579,-0.0204391747494,-0.0885694824655,0.125478077176,-0.0834672618913,0.105600559678,0.0217401521386,-0.0441399977147,-0.00528858720482,-0.048090175874,-0.0262167094487,0.185358553534,-0.0606020122806,-0.109305955643,0.0400971768132,-0.0213215455129,-0.123072690737,-0.0546300886341,0.0517166449903,-0.0325960009805,0.000483628239161,0.083250111215,0.016361499016,0.0957115464533,-0.0132661662799,0.021121608052,0.0251653456028,-0.0618410683618,-0.00493778736597,-0.126274796802,-0.0201105929909,0.0455472880555,-0.120951630728,0.0318538480627,0.0231283818814,0.0326155649206,-0.0718417902743,0.0306876888201,-0.0616426552299,-0.00297953719227,-0.166353786971,-0.0906187670421,-0.0550455021199,-0.0999287333721,-0.0318136589047,-0.142789222383,-0.0439764231832,-0.0416483757302,0.0155726465277,-0.0113925165478,-0.000278591003829,0.012630133664,-0.0626792145605,-0.0927122294722,0.0360931973164,-0.0663436314186,-0.00252966091386,0.0140884241324,-0.0447325488448,-0.0988718691914,0.0135873866426,-0.147635538057,-0.117361471064,-0.134653436614,0.113307145097,-0.0462957680326,0.113068346412,-0.00476852029581,-0.103017869472,-0.0850024564985,0.0737317284591,-0.059377226809,0.025064149228,0.0712142233349,0.180152490204,-0.0491190695738,0.0715619798907,0.00100914930349,-0.129533888451,-0.18852934902,0.0334072965354,-0.0489273599722,0.132270739058,0.15624619842,-0.0941695171201,-0.131847350079,-0.0333515966398,-0.00420494668692,-0.0549043452727,-0.0880019919721,-0.0546028546317,-0.25625244202,-0.17606471363,-0.158673265014,0.0600601924513,0.00726318484759,-0.0332996733052,-0.0577292922675,-0.0410615238185,-0.0287688904731,0.0199939846992,-0.0290744195895,-0.0296196226793,0.00538093383573,-0.014346889644,0.0841690319412,0.00602039938408,-0.0408150119568,-0.0852565524205,-0.108188687993,-0.093793542453,-0.0198277860346,-0.136661234659,0.0776273400047,-0.207542773044,-0.0493110798421,-0.0341385976679,-0.103391496688,0.0290751636991,-0.0308375787373,-0.177152670643,-0.0882051791424,-0.174777034184,-0.0665567112746,-0.0650494189776,-0.0149494481948,0.0175474284744,-0.0937297068161,-0.0366083899144,-0.00853811154794,-0.0777852014628,-0.0864791776093,0.0652232959474,0.0305308818526,-0.0535792305734,0.0271491282497,0.134686528997,0.0221401653457,-0.0767923759156,0.1069399813,-0.0498358900857,-0.206696100792,-0.0495038559721,-0.124817120486,-0.144024737267,-0.113339611551,-0.171645756261,-0.231681995409,-0.0256967550462,0.0488135975711,-0.0739464473466,-0.0145893289061,-0.146624113823,-0.0818315335043,-0.0293233701596,0.0588714722394,-0.0214903632676,0.0651987052775,-0.0922566628264,0.0737455681919,-0.0909944655611,-0.0721470783632,0.100649214482,-0.0231251861672,0.0641387393526,-0.0294733235859,-0.160787735825,-0.0943060704941,0.0673800716813,-0.058597861892,-0.163491479321,-0.184365435696,-0.163528331377,-0.168494134441,-0.10166241342,-0.0226814577905,-0.147901977628,0.0423563507124,-0.0346292725888,0.00122488962818,0.0490105544439,-0.00518807632297,0.149112046884,0.10807424968,-0.106037831907,-0.0083125992632,0.05884426852,-0.0718298484987,0.0633465537697,0.00908920680187,-0.0262517226319,0.030964470845,-0.159136049725,-0.0870953644211,-0.197555113303,-0.134971462989,-0.18252432305,-0.18539864603,-0.131666911867,-0.273371656032,-0.158658255905,-0.200266095695,-0.131948254542,-0.240567350923,-0.132804080654,-0.0499090287309,-0.13801609846,-0.0829177914508,0.0710121350818,-0.134834557947,0.0328216360891,0.18243088195,-0.0740468628793,-0.0600181712529,0.0514789223846,-0.0224148326769,0.00897849720356,-0.0305745691223,0.0266142769269,-0.025026283798,-0.197243400479,-0.110115109469,-0.165949181496,-0.0654614767299,-0.171510625864,-0.230480448987,-0.149460030888,-0.0785745566645,-0.180950702642,-0.173967553223,-0.0832762692456,-0.0465048655892,-0.145130800654,-0.0449739455677,-0.0176551919949,0.0175769164872,-0.0186745679472,-0.0503714101807,-0.0352621592559,-0.0215420904163,-0.0390479489214,-0.160006870663,0.0795101879693,-0.152829764846,0.0693101628042,-0.0363064466,-0.0766790641667,-0.0660832394546,-0.174612067244,-0.0961506498045,-0.192369818464,-0.231361376124,-0.214989569801,-0.149965993963,-0.146314606657,-0.08747275896,-0.165683946027,-0.209377321223,-0.248750689089,-0.0878008296151,-0.124641750562,-0.098778109345,-0.178973486755,-0.0885666372023,-0.0906295015893,0.0641153577172,-0.0564537065943,0.0454449344858,0.0244271215323,-0.00732673664379,0.00453565888626,0.0607652091272,0.00641134258442,-0.0347078819275,-0.149037212697,-0.084077729949,-0.192718006559,-0.174768956106,-0.172232074024,-0.110008068929,-0.134956187177,-0.139318095434,0.0670931321665,-0.1418593616,-0.0860139084065,-0.229591958806,-0.0828814752138,-0.0501003249968,-0.0418280377434,-0.14589772086,-0.118603050474,-0.0659199191949,0.0273151522455,-0.0840555936448,-0.0917198305987,-0.111334122915,-0.093999676634,0.00714689684082,-0.0192201182176,0.048723696952,-0.0979949772721,0.0128593567545,-0.116462058464,-0.155271712082,-0.15348097771,-0.121181456727,-0.11825971583,-0.123309975645,-0.0971685186618,-0.0711387624905,-0.0521801563846,-0.166557728529,-0.0266797207588,-0.00145094419772,-0.162523867548,-0.173619897124,-0.210361774925,-0.0104650211343,-0.0592601167471,-0.0830723115581,-0.00869955354584,-0.0850107895756,0.091913855021,0.0216906822734,-0.0912391464366,0.0490810558844,-0.0831832859594,-0.00330811884944,-0.0872709920793,-0.0181803910715,0.000267819542586,-0.196673889242,-0.0830563363667,-0.0501029446672,-0.140784367634,-0.168839480936,-0.0185019215807,-0.0677255796162,-0.177984194146,-0.158557851507,-0.0739827413352,-0.13319611755,-0.188822047574,-0.211261862912,-0.0487060599599,-0.15326906044,-0.0752089771169,-0.115287647122,-0.0750656790726,0.0394254781927,-0.000972713171144,0.0154118633602,0.0598537131249,-0.0918713572052,-0.127475884829,-0.0147282070234,0.0943674801194,0.0402358924307,-0.0195428241746,-0.0407337911119,-0.054863794107,-0.13095849454,-0.0585067185255,-0.0814898504304,-0.0646338765741,0.0494534819873,-0.159616954792,-0.224359669471,-0.24536668057,-0.214150493857,-0.0263656817996,-0.175479944061,-0.0325779838317,-0.0917011767735,-0.0226594393918,-0.119395781834,-0.111497511557,0.0398841430849,-0.123492712037,-0.07336877709,-0.0449256252947,0.0657904191776,-0.0714700928167,0.0999696464447,0.0225979605202,-0.0265364382348,-0.102232971884,-0.225050661065,-0.141032842872,-0.245328541495,-0.101353333471,-0.0928397791391,-0.0145296920347,-0.0125934855405,-0.126332692495,-0.368188179338,-0.129231966095,-0.155664250173,-0.136867348503,-0.137378202442,-0.104079287716,-0.118002608862,-0.0354169880427,-0.0702031992164,-0.0476990514965,0.0701104808425,0.142692304782,0.080944889307,-0.155017794484,0.0153786673518,0.0296640576832,-0.087235684539,0.0210680996672,0.000338175957323,-0.0638064735113,0.0173717438158,-0.0152641284608,-0.102452527375,-0.0486197260065,0.0246593387066,-0.236171286222,-0.128030106483,-0.317695482527,-0.245732206756,-0.0971879804262,-0.0804510970587,-0.0506353971219,-0.189778255347,-0.113162831307,-0.157380806976,-0.0325704676618,-0.144522297694,0.0133826146371,-0.125377963829,0.00563068862706,0.0372302176873,-0.168223901727,-0.0877164108824,-0.0454948161606,-0.061788458436,0.0888993518842,0.0227349510166,-0.104705370862,-0.0766243271041,-0.0942404426382,-0.0896240804237,-0.00233398800031,-0.00591729587231,-0.0482555387094,-0.130689615838,-0.210198487212,-0.11805057644,-0.238594335858,0.0141310414706,-0.128648136038,-0.0102434026038,-0.0279424422009,-0.0692001036159,-0.00848118760728,0.0718135771768,0.0468204600726,-0.00352726722411,0.0153172759415,0.0717125014721,-0.058272620334,0.0865187789026,-0.0612300780416,-0.0273620052687,-0.103602044183,-0.0230882588358,-0.173425116336,-0.0139399784423,-0.0774234478985,-0.0290481662208,-0.0760116094084,-0.129326217794,-0.153666949112,-0.242845905146,-0.175637230263,-0.285721821124,-0.126901815004,-0.10777034843,-0.192628411336,-0.0321184851393,-0.0680707264706,0.0126965758232,0.117709562023,-0.0597879408598,-0.0236609432972,0.0451253473018,-0.03012780548,0.0264438394179,-0.0848853285293,-0.108285091751,5.11868236553e-06,0.0562592494526,0.0118922204235,0.0115461995199,0.033691754387,-0.063454532921,-0.075926358758,-0.222044397237,-0.11906722031,-0.119378429124,-0.133518495826,-0.19648792481,-0.261282152137,-0.130141404099,-0.143007600346,0.0651149845406,-0.11006436261,-0.253726586002,-0.027985775824,0.0810484843114,0.127946130573,0.115810328519,-0.00919983449899,0.0598900072708,-0.110731545663,-0.0731964327713,0.0215777670578,-0.0207332719828,-0.0759529120777,0.122620658105,-0.0631377632717,0.0618062046716,0.12685231746,-0.137721795991,-0.0150938502026,-0.104917771395,-0.19879569945,-0.112335942787,-0.20857459948,-0.145716701435,-0.208604304608,-0.11922073219,-0.253246522255,-0.114552294511,-0.220046775802,-0.00430477194333,-0.0349870637871,-0.0502009380821,-0.0914988123501,-0.00380305151138,0.138457654028,0.00460117266949,-0.058015623157,-0.0375020535397,-0.0244760455782,0.0359135634202,-0.120906376162,0.0339718676261,-0.0166977337656,0.0235523105516,-0.0787358157238,0.0583011621209,0.0870559616048,0.0213541648994,-0.192962492828,-0.1937901714,-0.153508268165,-0.224500562324,-0.0899676755918,-0.0639099535006,-0.171980058267,-0.225371637057,-0.0520897493259,-0.0266523037566,-0.125223431813,-0.0305400174312,-0.0421527790665,0.0691520148655,-0.060140825778,0.12069454659,0.0331704974881,0.0636439030667,0.00622218775818,-0.10516448136,-0.050435683033,-0.055163941508,0.0473391739759,0.0442223714592,-0.0962620085866,-0.000275579915359,-0.066510480533,-0.116743245908,-0.235048025949,-0.192986329446,-0.106932433361,-0.164535456239,-0.253271215251,-0.121374728911,-0.194891045181,-0.222435857725,-0.105211042657,0.0479171734168,-0.0048962328592,-0.0608576988946,-0.0314972596473,0.0518038610471,0.0451504742387,-0.0253593124773,-0.00109643362063,0.0831423769955,0.0247129421326,-0.0326697909533,-0.0174175509457,-0.0148197325117,0.110348205279,0.00334121708565,-0.0153135479976,-0.104041761441,0.0543336409116,-0.0380509661113,-0.0473133352898,-0.0589649201688,-0.117129887606,-0.0121096291078,-0.00913385697693,-0.0410205704619,-0.0437281937643,-0.139132656909,-0.101766173818,0.000912363870682,-0.0649915876018,-0.0324518202744,0.00679622440412,0.0808455246265,-0.0392157833408,0.0533882979458,0.00283621776614,-0.0552934402636,-0.0651990040133,-0.0681625844346,0.0102556821703,0.0713310643425,-0.099168801673,-0.00137009723649,-0.0901199316519,-0.0549289177146,0.00689555898944,0.0255972985073,0.0340321805275,0.0276656760695,-0.0712832557035,-0.146896670973,-0.0564011621111,-0.0793684817664,0.122072874032,0.160002366298,-0.0697173287884,-0.0818756877521,-0.0351381556611,0.0215964453456,-0.0671775365936,-0.112994600006,0.122479944413,0.152882589579,-0.0722564067197,-0.0319603562236,-0.0140295009899,0.00727313761696,0.08717180433,-0.05832166832,0.0205593289497,0.0171919455403,5.7763045102e-05,-0.0225480918302,0.190632479796,-0.0796208163175,-0.0469821989284,-0.134661437113,0.110278243478,-0.0803378349051,0.0249348284606,-0.0986789538616,-0.00692591658843,-0.042904680966,0.0241297677886,0.0261484177869,-0.000769215988897,0.0162857652216,-0.0607833941661,0.0724899309888,0.00870410932171,-0.0464360929242,-0.0669936947209,-0.0491098309261,-0.163440344096,0.0209127745339,-0.117867975576,0.100905643366,0.00411301590567,-0.0193131909542,-0.191412569301,-0.0632331665675,0.163350514077,0.0419665099648,0.00699620376189,0.000709426481515,-0.0663924223343,0.0252225795059,0.0174987003836,-0.0693609403167,0.00116971385839,-0.0548385124906,0.00739580516202,-0.0440142270773,-0.0124374424133,0.0154072408743,0.0340214538872,0.0413006004378,-0.0536646887828,0.0160732165797,0.00501311860522,-0.00190027350514,-0.0698813585128,0.0262923783926,0.120004229318,-0.0191030926589,-0.0437141678065,-0.0846969479024,0.019521956687,0.0643305625374,-0.0275843451428,0.00251576399869,-0.130225210347,-0.114983326263,-0.00314688162914,-0.0660102653225,0.0429637984381,-0.118558878268,-0.0363988546232,0.0516034992457,0.0238674639611,0.0286098077321,-0.0596139185133,0.00334945529096,-0.144246924285,-0.0559969854956,-0.00303525913771,0.0303817507676,0.0295121840261,0.00708397579604,0.105265088978,-0.0201447679065,0.0382016599612,0.11072063538,0.0266160080868,-0.0413117108936,-0.0522947071413,0.104084901372,0.0251106569123,-0.0797825009763,0.00798804825831,0.0240523332041,-0.0537773850961,-0.124098307762,0.0876763363143,-0.0862093969145,0.0457682218816,-0.105650561347,0.00109135876679,0.0489196974523,-0.158087143308,-0.0162382874582,-0.0329094994243,0.00269542156855,-0.0403778791369,-0.0270413050349,0.0836966001064,-0.0541988606762,-0.000490967298431,0.0292277250331,0.0575013713904,-0.00486885738054,-0.0331153055947,0.0709686205725,-0.0171918413005,0.0591745302146,-0.0319580977009,0.0215525226813,-0.0933868842092,-0.174350629986,-0.153799637942,-0.0339703657062,-0.0912038608359,-0.0981733795042,-0.0389728734701,-0.180855260033,0.106337178419,-0.00877515723677,-0.000722034894398,-0.169749247442,-0.04581402948,0.0191644775678,-0.0589367747807,0.00893469848412,-0.0123035431344,0.00193513049161,0.020882511708,-0.0979691905637,0.104808659816,0.00517877539741,-0.0664669589208,0.00293126477213,-0.028511658091,0.012279628887,-0.00100209182762,0.0272572787275,-0.048694239168,0.0841565724431,-0.0731717280572,-0.143523038363,0.0610115798728,0.0436209525815,-0.0843267641188,0.0284454437162,0.0293491636533,0.0226600733716,0.118614719965,-0.0956299795209,-0.0694301726983,0.0250418107858,0.0605055059491,0.010209949252,0.0436387955648,-0.0270130149563,-0.0953688982745,0.0200990464189,0.164997828358,-0.0309733210264,0.0349004484893,0.0625942885263,0.0130077188999,0.0270519943053,-0.121800502175,-0.0578589784703,0.0666533726825,0.013548525876,-0.0129493214719,-0.0407201010996,-0.0329430754414,0.00762997811703,-0.101833821517,0.00297329358986,-0.00798006564107,0.0449714784338,0.0765492354444,-0.0147021864788,-0.154257382249,-0.0704221300518,0.0299124765198,0.00468297068018,-0.050854934221,-0.00651465904221,0.0129843474827,-0.121802436397,0.0123131544591,0.0535532576409,-0.0551768632207,0.00460171784522,-0.0986792715827,0.0025374319692,-0.0745182637715,-0.12099572756,0.0118460930378,-0.0203162311285,0.0311420927449,-0.0281600330519,-0.00534542478187,-0.0209730941378,0.0197826323518,-0.0362644318386,-0.150541509474,-0.150916568555,-0.083917117957,-0.140581159269,-0.172031996683,0.112418722848,0.0302048682556,-0.214319406369,-0.0168124291623,-0.0434167349284,0.0553337812025,-0.0388589124583,0.0114434746371,-0.0391909622438,-0.023802973585,-0.0337139152788,-0.0967894033289,-0.00569136526274,-0.00444681172124,-0.0397566507572,0.0235239826681,-0.175275596857,-0.0922618230088,-0.0263710036911,-0.140256335275,-0.176593948717,-0.0867813482144,-0.204392283516,-0.138319624155,0.0232244579784,-0.0771202940428,0.0304375917348,0.176651561276,-0.0887604216193,0.178201219589,0.0345112747061,-0.0597258338005,-0.0499165930203,-0.01576683311,-0.0120656129902,0.0525829674964,0.00554150279407,-0.0193925945213,0.00577949335022,-0.0471650995226,-0.202968964839,-0.0621001706847,-0.142472640824,0.0235987048829,-0.0871535099002,-0.0964718369127,-0.227241705296,-0.0906326715216,-0.0462608066161,-0.179186859151,-0.243854625853,-0.120164296466,-0.153085748979,0.108030036569,0.00194166154485,0.0424254062733,-0.0447617645216,0.0420057625144,0.0648909323376,0.115249057688,0.0782847544737,0.139025027227,-0.0182336462258,-0.067964858432,0.0700056184969,0.0654466665184,0.0361942668928,0.0394441922863,0.00433773173282,0.0636678062155,-0.157443843243,-0.10460563926,-0.188273391668,-0.177611129313,-0.0577104281343,-0.223381238258,-0.218618817061,-0.281141344757,-0.192861710593,-0.13815896738,-0.174296535505,-0.0613617502976,-0.0764349411514,-0.0564098370476,0.0787167596631,-0.024497826872,-0.128097031534,-0.00281710396586,0.0682148303733,-0.00688319419969,0.0374394963745,-0.0478147284382,0.0922867863568,-0.0934335871011,-0.125930402316,-0.145442862191,0.00426379066409,0.048367351916,-0.0756081219157,-0.0140133618399,-0.0102817060005,-0.184941795229,-0.153097504977,-0.187775093865,-0.151431022159,-0.103856393889,-0.232257067599,-0.159736744117,-0.183822169913,-0.0648427699664,-0.0945669605352,-0.0195427602499,-0.00626780171988,0.0503739275972,-0.0117033613631,-0.0168503838965,-0.0109441156602,-0.0623612744948,0.0179041372936,-0.101376710768,-0.143026123409,0.0512431063349,-0.0148631595321,-0.0494268294946,-0.120923744247,-0.103284208573,-0.0855497516568,-0.0655482215476,-0.167886424781,-0.127077331042,-0.107598875109,-0.120262519068,-0.238836106871,-0.159809668731,-0.20947706255,-0.212228329258,-0.214167998307,-0.127513182759,-0.105237089382,-0.0878064513714,-0.0764942703502,-0.0342533173442,0.00109277955696,-0.11251137807,-0.0900479160491,0.12711423716,0.0203732863692,-0.0211502527567,-0.0715667414915,0.019230936806,0.0311839603105,-0.101530085155,-0.0326296564103,-0.271798136188,-0.224017126329,-0.0802302882309,-0.00890833119763,-0.0867491822022,-0.235565557567,-0.20658149961,-0.222492509857,-0.373665063592,-0.254751659321,-0.287138208299,-0.169540929728,-0.220491223405,-0.220242099979,-0.132903186859,-0.0780740141243,0.0187330055169,-0.000412844867356,-0.0104433347959,0.0136506298091,-0.0797974213612,0.0801683814553,0.142104573214,-0.00693996479601,-0.00854991735005,-0.0248362382094,-0.0475445012931,-0.0798438994578,-0.0361766071645,-1.56665788368e-05,-0.0615741604549,-0.0613011218345,-0.043660793467,-0.182404059559,-0.27578937535,-0.246478806163,-0.251655081075,-0.120447233479,-0.236149232842,-0.238438533909,-0.141934273458,-0.230393376608,-0.187936545562,-0.0905962930218,-0.104942440138,0.0459795246194,0.0413072735217,-0.107767132621,-0.0915131330755,-0.115247085697,0.000235425960846,0.119350112831,0.0936322276478,-0.155824253655,-0.0165669395048,-0.123026231547,-0.0593256048574,-0.217068073702,-0.164707990438,-0.117906866435,-0.0830665685493,-0.10773439118,-0.0331641008708,-0.232692386623,-0.180541452703,-0.230871791604,-0.19550201959,-0.103356572891,-0.0818434432015,-0.135099612797,-0.0505435490596,-0.0670690908101,0.0562376826151,0.0133642500131,-0.0223803215323,-0.00244470074765,0.0150772833492,0.111885438345,-0.0237360005014,-0.0926058640386,-0.0411575692327,0.106887848614,-0.0390493925011,-0.0404067103666,-0.104786662408,-0.0424626519461,-0.218444320244,-0.0465281255739,0.0053258795704,-0.148056215823,-0.187797440754,-0.262346396801,-0.178093787644,-0.0727951765157,-0.0474062511093,-0.166420296715,-0.0425669601449,-0.0690742962386,-0.12583670558,-0.108898636221,-0.0347605113676,-0.0438098839774,-0.07765965295,-0.078974177874,0.0157928460683,-0.0792544641132,-0.015418134537,0.0781940922618,-0.00538710949892,0.0999273104071,-0.0551240226598,-0.092976904599,-0.126497876461,-0.0466587459989,0.00422175405897,-0.0946382043332,-0.0592076530609,-0.24921250015,-0.248523886646,-0.234878856822,-0.265800914585,-0.174574831135,-0.224182589486,-0.0701206020419,-0.174303150511,0.0413890846989,-0.123086701399,-0.0457310102074,-0.0444233702458,-0.0301888691801,0.0570528402458,-0.0156067164856,-0.0400922159265,0.0276069618789,-0.0715110815423,0.0750467412132,-0.132802146541,0.0309619694564,-0.118160488514,-0.0933338872536,-0.0993718406003,-0.0686466295769,-0.155593655031,-0.0857639295818,-0.147024786526,-0.114285306439,-0.207269488398,-0.313481293472,-0.172079216246,-0.200178226175,-0.166924098695,-0.218562972447,0.0401958880959,-0.0592747773756,-0.0256966280871,-0.022768857875,-0.0552270070978,-0.0309087354132,-0.0951748543308,-0.0934612146391,0.100856824678,0.0168771426255,-0.0159147646221,-0.0626771881016,0.0252153686376,0.106138834925,-0.0747505340463,-0.026082691036,-0.0796705126317,-0.0509027548609,-0.149275479727,-0.170333660496,-0.200235768811,-0.290711183958,-0.142656737064,-0.321442595931,-0.204373409991,-0.294619935129,-0.181610446521,-0.128955320763,-0.135864959115,0.0387616902737,0.00632049628391,-0.00647171064312,-0.0644895723503,-0.0196281978651,-0.058121730508,-0.0563625323993,-0.0200514783826,-0.062036503855,-0.00682176855589,-0.031781868627,0.15198539542,0.0312087598235,-0.0512063745842,-0.0586618077765,-0.132765419285,-0.0621389685384,-0.107941336038,-0.219056533831,-0.107614328914,-0.203494665447,-0.261041219037,-0.387899705058,-0.259317924332,-0.305409325199,-0.0128463698217,-0.115962515069,-0.0372714016352,-0.147015908044,-0.0336205953647,-0.246262511789,-0.146338352368,-0.116514071331,-0.0751352022567,0.0288029988258,0.0246721679513,-0.0270554184178,-0.0868903552786,-0.159117644948,-0.0449233570484,-0.0076390526259,0.031853165235,-0.0369096621153,-0.0526244931888,-0.183190828192,0.00619298255867,-0.073955589933,-0.0412717016395,-0.191162661569,-0.148441125359,-0.342107915415,-0.0916280124467,-0.0606849658586,-0.126494701162,-0.06678619684,-0.0648582303238,-0.00496030650906,-0.10850428558,-0.0765770635631,-0.0063741041714,-0.00950608054449,0.0260487320021,-0.0373962337798,0.00637201531828,0.00981216241248,0.195868946713,0.063188404611,0.0272896285995,-0.174290943355,-0.0250517029958,-0.0187744464752,-0.0271721424783,0.0664754290105,-0.0148168293354,-0.0884732331311,-0.0797197603595,-0.0759222401878,-0.198573519162,-0.183132725762,-0.296359816294,-0.229889319518,-0.217254696148,0.016601879378,0.000827418932858,-0.0668309627288,-0.12862565732,0.0338396698578,-0.144755922391,-0.23062320361,0.0110311776533,0.111107802955,0.0425022026124,0.097613156035,-0.0581735885763,-0.0769472366484,-0.0145748932615,-0.00556409393472,-0.0904785162549,-0.149582543899,-0.0401187763188,-0.14361408984,-0.080142546281,-0.0786963645554,-0.192671771538,-0.0737086011741,-0.173006319186,-0.19612345001,-0.182619205572,-0.110941011881,-0.135191090677,-0.0570716808237,-0.170740265794,-0.158509807336,0.0485910401323,-0.012208848613,-0.0223128672617,0.0311789605899,0.0124243812211,0.0298461044858,-0.0349108155645,0.036275775094,-0.0209193684327,-0.0258910596927,-0.0601730166002,-0.0988406064349,0.00371058316037,-0.0336327089003,-0.211013405401,-0.0614362309259,-0.144177878788,-0.172311240154,-0.130463436901,-0.150993812187,-0.210279283402,-0.185171478783,-0.24559720625,-0.12200629028,-0.138516523316,-0.0814266760048,-0.172399617612,-0.243543917389,-0.0137650401373,0.0492869919775,-0.0690275793335,-0.0455970899025,-0.03799176222,-0.139433748358,-0.101923316928,0.168075616656,0.0451211568334,-0.0050343096887,-0.0679703603488,0.0110444130584,-0.0229390718145,0.123249946197,-0.0926226836815,-0.164863401539,-0.130482033871,-0.0978321864487,-0.168871929852,-0.0961307222622,-0.0641675016753,-0.0738723983615,-0.122694160807,-0.0753061346376,-0.0751897702265,0.00273205194611,-0.112755644493,-0.188726002004,-0.107036479294,0.0901092346773,-0.0202302644982,-0.0780781915275,0.00392878841652,-0.0118068586372,0.02005013243,-0.0730359655655,-0.0425751741107,0.10168707079,-0.164233586913,0.026221726086,0.0392009463012,-0.098188672986,-0.0245483292752,-0.127341738352,-0.123258532686,-0.00451867237093,-0.143629243985,-0.133984322192,-0.154925004933,-0.0514784541687,-0.212710132525,-0.125817706659,-0.0435274495524,0.0266411674242,-0.160310678325,-0.0156791848692,-0.0222469327841,0.0431866372087,0.00758352555821,-0.0622407512281,0.032577423059,-0.0819327608946,-0.017510192708,-0.0229252182165,0.094664476705,-0.104253921192,0.0667122983653,-0.0512122179646,-0.0102658443551,0.0698545751318,-0.101227456613,0.0390250068707,0.0162350718339,-0.0818985206217,0.0402996004265,-0.0770082599584,-0.0939063388564,-0.148489406215,-0.0276045470758,-0.0116370988472,-0.0145355516461,-0.104877886228,-0.0789730772345,-0.118818824457,-0.204469955518,-0.0317350979569,-0.0595176794484,-0.0387004295025,0.011963098053,0.0494107335454,-0.0121749430287,0.00406721760388,0.0317990790095,-0.0945848931545,-0.0378427945208,-0.0401719681937,0.122381265363,0.0753501891173,-0.0438862117187,0.135243275762,0.0520930759323,0.0399120977632,-0.0159572186739,-0.0220059509187,-0.102261279549,0.045197413943,0.0120357639628,-0.0207449627243,0.00443085481462,-0.0927396035788,0.02649147647,-0.133626071951,0.0745931761945,0.0044027848367,-0.00809242335583,-0.0806753096705,-0.00277686167459,-0.00326701562313,0.0110532261701,0.0510830221962,-0.034552252352,0.0167581902222,0.00714252034489,-0.0815840372098,0.0297400589444,0.000282008549027,-0.03059714193,0.107563953568,0.0621645121969,-0.013736876035,0.0488261071279,-0.0524519118703,0.0558922682097,0.00106239057129,-0.0341180498841,-0.0211219542382,-0.0909271089859,0.042961595068,-0.0475504216766,-0.101135205339,0.0249104070865,-0.0448303227412,-0.0643717600792,-0.0176059456575,-0.0348616628513,0.000408768271178,-0.145605312387,-0.0346161271267,-0.0363394940259,0.036192711618,-0.0682502331672,-0.0786507203106,0.00654070625565,0.069677694413,-0.033623142568,0.0204399945958,-0.124692208033,-0.0163579547746,0.0789310537697,-0.0639885184488,-0.0591918260536,-0.0127396109272,0.0889901897272,0.0495683752042,0.0727087284588,-0.204594352049,0.0572818976524,-0.057340711012,0.0125885729154,-0.0190810553611,-0.110469800115,-0.101060678123,-0.0928423112957,0.0561601155701,-0.00832844860897,-0.747056725057,-0.726706738271,-0.736132484534,-0.738894315271,-0.780865467476,-0.804428160966,-0.802940714378,-0.719468975252,-0.687687409327,-0.785143782498,-0.786310443845,-0.697796432171,-0.697648536727,-0.780249905406,-0.771414854603,-0.772317031629,-0.856927276205,-0.774319730417,-0.663932946165,-0.756604374444,-0.831349974363,-0.862876905432,-0.818626536615,-0.781488043125,-0.812457902328,-0.806092844114,-0.815197475064,-0.808720143693,-0.745883259242,-0.583717247569,-0.76470712347,-0.887055411807,-0.74204489589,-0.82068820852,-0.714199218188,-0.719123887598,-0.835729734807,-0.876692475639,-0.807944355173,-0.811122349721,-0.877194383344,-0.898319904401,-0.876676448168,-0.854606832513,-0.893251016687,-0.857140173247,-0.927386579469,-0.814674311754,-0.769296548992,-0.779630639618,-0.892861709624,-0.802175608657,-0.86244600549,-0.801926604637,-0.67601349444,-0.811529603426,-0.755183772119,-0.790580273002,-0.77296222208,-0.81028830283,-0.760984800818,-0.657423406034,-0.769456546044,-0.770555685567,-0.774101563417,-0.906779440785,-0.775450108324,-1.1111851021,-1.13000603571,-1.19957249759,-1.29514374029,-1.44364320187,-1.43715024126,-1.1938763713,-1.1815685576,-1.20993910805,-1.04576509469,-0.854135771495,-0.890012808296,-0.748324078319,-0.740527743763,-0.670599131205,-0.793939603868,-0.725387740371,-0.783478488172,-0.783864902548,-0.739409875701,-0.757160691963,-0.643434820426,-0.707297542705,-0.974601718674,-0.897454401847,-0.282580411877,-0.41307189008,-0.446428446174,-0.105481618985,0.17435527953,-0.143866297934,-0.664004771111,-0.7527136653,-1.62175022893,-1.81399123955,-2.27504435785,-2.0214596736,-1.96652346198,-1.90209673253,-0.896290021036,-0.363804539005,-0.345709877712,-0.740980476519,-0.790328664043,-0.810603521323,-0.834029937595,-0.743098248323,-0.754144512107,-0.851886534493,-0.543593526012,-0.337308056023,-0.446039645589,-0.389418713401,0.372185346063,0.0433627287613,-0.399516722175,-0.22467289544,-0.618743495549,-0.211719479823,-0.359528536917,0.0499696546161,0.0665067890377,-0.720932720316,0.0937841628196,-0.098588916709,0.0844839366256,0.531627110695,0.0104753132548,-0.023095661992,0.062402321122,-0.307687268134,-0.796586811848,-0.789214539601,-0.805140127943,-0.755292264198,-0.780992475447,-0.797338177454,-0.554141318854,0.00593420508357,-0.29048232464,0.255174415528,0.254451489065,-0.763972193737,-0.0591125939924,1.20986034771,0.339671809956,0.30423215483,-0.125505540005,0.0836898843961,0.192711786014,0.135654990928,-0.00525557597788,-0.528046902169,0.214316150861,0.189451301375,0.0944730957901,-0.042427471232,0.144754755287,-0.542280486785,-0.753050275723,-0.908776153824,-0.691205434986,-0.847932970042,-0.749728161098,-0.68217921573,-0.46373709505,-0.218296351363,0.366829352382,0.27057009036,0.168936708494,0.00934842900664,0.412167734885,-0.138516082415,0.254675258932,-0.134358426871,0.302743598621,0.176213131146,0.311434373039,-0.254770960309,-0.141659347338,0.263267344892,0.301724657831,0.805816814387,0.0290085116704,1.20439046482,0.433584612112,0.22438112315,-0.605802095416,-0.781509073902,-0.784163178362,-0.611224896644,-0.657168947134,-0.368688977599,-0.232842366982,-0.129098475279,-0.00335594060999,0.0302770064118,0.535041234611,0.00451482421466,0.298767672827,0.235549577712,0.202735624808,0.467653888419,0.0668510583432,0.0597805256822,-0.101633380448,-0.107095790832,0.526146999254,0.502059769197,0.843109947059,0.401153323894,0.608306436525,1.2455499749,1.17680625168,0.0479814949191,-0.548620376954,-0.829664465683,-0.754307927536,-0.85100907278,-0.926271978549,-0.558492953585,-0.330428699197,0.0602729841432,-0.0337323031335,-0.307844817323,-0.243549513196,-0.156525522276,0.598120878586,-0.443597853523,0.149767807974,-0.0719874579599,0.196614001697,0.24571780139,0.657234550758,0.767127259235,0.665744418637,0.565063142437,0.549601107901,0.0777020650717,0.136845698973,-0.467478509807,-0.592047693924,-0.295880377931,-0.490295778695,-0.637610738765,-0.696171272257,-0.755466370903,-0.866795799975,-0.976762809548,-0.609928886921,-0.525711428111,0.242806172557,0.182278594448,0.366886075981,-0.229859849964,-0.369061800091,-0.391531511852,-0.403231802771,-0.279305941865,0.274007356881,-0.105649208912,-0.202689916797,0.299992923812,0.0428191463328,0.107715759875,-0.308302953867,-0.110275585903,-0.337533493531,-0.0927016560537,-1.00869310688,-0.707764871612,-0.600948105632,-0.819734283056,-0.754851034018,-0.939067970155,-1.03288855469,-1.03935790165,-0.379094355533,-0.209936242195,0.0653891550126,0.112648524964,0.25066911235,0.278797553332,0.342367297478,0.30720088459,-0.283711503571,0.0768702639365,0.688003491441,-0.224672341991,-0.422158280678,-0.160166515709,-0.203578672947,-0.388573909517,-0.341679721982,0.0785508519425,0.0156003454526,0.751668010416,-0.643604739738,-1.16105028347,-0.937436363908,-0.793305261518,-0.840475585063,-0.951482675231,-1.0617403202,-1.18933521259,-0.293004772094,0.402347938713,0.324826923969,0.315230323098,0.207198917236,0.206186479875,0.261451103461,0.60801889251,0.431644179209,0.587532693768,0.270544589713,0.509961349991,0.0612614518241,-0.0568911071366,-0.384333379649,-0.207308417464,0.0331251109561,-1.05907643529,-0.0356161623553,0.716562026661,0.845259667172,-1.00648059031,-0.621043095863,-0.785625121781,-0.835327293885,-0.927310677583,-1.02745082731,-1.0856322642,-0.357190630259,0.0977272940382,0.59554902898,0.0452452186664,0.237312435853,0.0763180122843,0.130910228034,-0.142445206781,0.37399732017,0.399307252281,0.578226997882,-0.259889614277,-0.383916176545,-0.37885291489,-0.745637234014,-0.332442311988,-0.378341059712,-0.521123115334,0.0587318966052,0.897685478824,0.701511901662,-0.441213578409,-0.755900265254,-0.921027585115,-0.757073232643,-0.828795340673,-0.899330628563,-0.678844272691,-0.740368885403,0.0107043630834,0.485023862949,-0.431307952194,0.333079173295,0.717609298735,0.274943488601,0.433075323696,0.241071756161,-0.657802456693,-0.187929592142,-0.377482081096,-0.515679990784,-0.815357363714,-0.264863910031,-0.483578654437,-0.0633174563974,0.33786544456,0.438161143601,0.685882504195,-0.210596799873,-0.346432461512,-0.856571365555,-0.795989576121,-0.813395538053,-0.798271481659,-0.944139007526,-0.75539727661,-0.763899961018,-0.177895082306,-0.440271348678,-0.243962718206,-0.0479330869016,-0.0746840912169,0.337551803719,0.378885221184,-0.291272353146,-1.34005520111,-0.174507188183,-0.472979262737,0.181280599547,0.236310895409,-0.23570929474,-0.209445407587,-0.960353080281,0.463191829523,0.281263810047,-0.143683415367,-0.0702794341056,-0.38872637235,-0.86148950055,-0.752946454231,-0.801032072532,-0.696816155174,-0.825681678716,-0.71913731519,-0.458442954189,0.0655177416004,-0.829988750738,-0.242384238118,-0.428173653648,0.0693434891862,0.65825733389,0.762269344707,-0.190915966257,-1.13262019485,-0.545492663955,-0.0189467902479,-0.00264448768521,-0.523943958231,-0.265246362132,-0.237137975741,0.243019646668,0.279528196933,-0.128262524592,0.123087195209,0.197318333065,-0.709893192976,-0.975027343109,-0.785346058498,-0.928480414797,-0.761223864977,-0.472708024065,-0.161161899168,-0.301194697767,-0.276832060852,-0.148884381098,-0.467362242638,-0.271699543872,0.0159989006669,-0.130945255223,-0.0349609873534,-0.848072754005,-0.264310117404,-1.04584064724,-0.248696657305,0.0665796645921,0.344878982549,-0.15521222739,0.313396457054,0.424470186385,0.124372236664,-0.353533001098,0.584183490327,0.335732843563,-1.21677898642,-1.07582466509,-0.791222018704,-0.563996509483,-0.817050715718,-0.417549159492,0.0371911785201,-0.0334874357338,0.0803922571724,0.171313455776,-0.539873109838,-0.143420601804,0.204673054164,-0.933946315057,-0.143408030694,-0.25078928458,-0.898441736374,-0.87237798417,-0.149098342771,0.032465141011,0.497058076481,-0.165825004929,0.778181702701,0.478442809906,-0.550896819467,0.680272624568,0.0988297799831,-0.0430706671319,-1.63308333956,-0.975955518763,-0.787871174286,-0.627654280448,-0.734093017721,-0.312607739104,-0.0486636692224,0.116050628709,0.114990106093,0.121839193023,0.39803762977,0.294434318125,-0.545814731402,-0.0028332717217,-1.20839167239,0.012402161236,-0.549937083869,-0.825757705226,-0.465283991074,0.116881746439,0.111463323509,0.274583380063,0.272098939733,0.564500309105,0.398627657575,1.01292090433,-0.812563957521,-0.714671067026,-1.59674255573,-0.91589406538,-0.745475385023,-0.86288843152,-0.65250984644,0.130220496226,0.15458999042,0.43715702919,0.0184117629792,0.281555950664,0.667076286496,0.107285196987,0.0613173257054,-0.764187631456,0.204314028595,0.0167601399375,0.369375666066,-0.449984902051,-0.689553886206,-0.0479899733314,0.312968896915,0.134834071164,-0.644873719846,0.555841717722,-0.266313169434,0.32090823832,-0.235077800465,-1.2529666393,-1.3384743226,-1.00070236288,-0.857365144088,-0.719588593639,-0.715639395968,-0.0194237736766,0.193747400437,0.208771583777,0.974415380485,0.790802784796,0.0970215337302,-0.614730288137,0.029115796004,0.495786562065,0.622601845168,0.215347244968,-0.0413265455029,-0.570237935686,-0.132446639329,-0.942284060509,0.136231442942,0.422464007645,-0.373579734198,-0.464093261028,-0.627037640927,-0.281004742381,-0.315876314798,-1.39805106601,-1.15258426909,-0.782252730412,-0.730694272865,-0.851905225349,-0.797228279298,-0.404077763049,-0.157025560342,-0.447546079999,0.0896114763571,-0.645258902737,0.000599767288422,0.755418864049,0.196296047467,0.292395693809,0.257810612301,0.0737769601693,-0.135732188097,0.548124331635,-0.035922810419,-0.00203676892374,0.0629676747043,0.124714311277,-0.215207569376,0.27007773911,-0.0258723857008,0.340807980147,-0.693780083621,-1.89559859502,-0.906633955738,-0.712968927474,-0.7657032959,-0.793494002824,-0.799950990574,-0.487272037627,0.0814733169439,0.0869343398671,-0.245097199535,0.0565547110957,0.655361527525,0.0322446329979,1.07298606979,0.328699720601,0.851473309826,1.22966697186,0.745287828048,-0.245762514519,0.701986411633,0.470473575868,0.211415018105,0.839679075972,0.318858221674,0.0462136943627,0.547719668159,-0.216957658675,-0.642759920785,-1.13889824297,-0.690204342538,-0.828823038144,-0.787263090836,-0.759501212316,-0.799387365599,-0.640937452574,0.0173535657806,0.88975349428,0.588315675061,0.4066395341,-0.13735142956,-0.458980123268,-0.344335189656,0.708245410821,0.446337274691,0.0747011422194,0.999261885502,0.90914815157,1.04751753105,0.977385353934,0.799979436192,0.5764309787,0.213004297957,-0.378426593331,-0.129144768889,-0.144805099267,0.108990667483,-0.567475895892,-0.783558652848,-0.830419356218,-0.767001035938,-0.704528780575,-0.716067849727,-0.692481180638,-0.329566814502,-0.406119478103,-0.191336652786,0.586448771243,0.318298911792,0.111585749048,0.232972298784,-0.318126532659,-0.175767029713,-0.525096940913,0.0502454634354,-0.322494259629,-0.596635599436,-0.530162429223,-0.828457182768,-0.904378047966,-0.651331484078,-0.71481741423,-0.697143259666,-0.442371088515,-0.580828562552,-0.653231321339,-0.562155815919,-0.780437653582,-0.719600065542,-0.728589756778,-0.81301059869,-0.803241769711,-0.762336329876,-0.957715573137,-1.3913418427,-1.41105063348,-2.03008505026,-1.55757090047,-1.60065555181,-1.25640410703,-1.12488865412,-1.36063090934,-1.59451436993,-1.69706234583,-1.71709721586,-2.03705789008,-2.15513073298,-1.9147725034,-1.61223584931,-1.36947458651,-1.56837029312,-1.15635315488,-0.753676087347,-0.711284404624,-0.814707789837,-0.713946987777,-0.887195850323,-0.795105571555,-0.804781687297,-0.705110502121,-0.89086860415,-0.818069134677,-1.04183834553,-1.17058352391,-1.35233532348,-1.53355561462,-1.65163692264,-1.51507024239,-1.81608756581,-1.9358710918,-1.69701384862,-1.72288176958,-1.79235435444,-1.60197406861,-1.42673212875,-1.38014408584,-1.28285015744,-1.07618555182,-1.15962520771,-0.892730240676,-0.907040955025,-0.685080593016,-0.83009430067,-0.744112510468,-0.755239182908,-1.01034562227,-0.803043065675,-0.783109686963,-0.730135371351,-0.735989053505,-0.820705278775,-0.755697174813,-0.861440853774,-0.821656071774,-0.93789860565,-0.781905658834,-0.808370515821,-0.829500772484,-1.03318522935,-1.03679794003,-0.955627002522,-0.924173475508,-0.901662799897,-0.761889707714,-0.698583367788,-0.79552938318,-0.803972145229,-0.792148778524,-0.814594374842,-0.720397850614,-0.683456712324,-0.754899072972,-0.839809834992,0.00869961350327,-0.101827741346,-0.134799460313,-0.0407375585052,-0.0780945488333,-0.0605278469219,0.0977597523943,-0.0677936651823,0.000842991362517,-0.0477393350057,0.0709868062515,0.0239119434096,0.116628521984,0.0347185046505,-0.145623631787,-0.000929939427159,0.00757897627904,-0.0765620825035,0.00369971505634,-0.0589751709093,-0.0117087641397,0.0322382405012,-0.0380834512518,-0.0789932514372,0.123132183788,-0.093840205581,0.0166311943498,0.0447070741354,0.00239086090059,-0.140989722268,0.158804398261,-0.123074658169,-0.191400643826,0.00705610253609,0.0875446844988,-0.0600687466263,-0.0736443593773,0.0542445897492,-0.0606831511922,0.121771372465,0.0185864029919,0.0217564510585,0.0348231397654,0.00285263843662,-0.0546110431533,0.0483534405803,0.0165987255423,0.264239607382,0.00490323632707,-0.092023315187,0.0371242202502,-0.0848693800982,-0.00556023372428,0.0147980347698,-0.006216926516,0.0866837164776,-0.0624956106755,0.0517862477935,0.073364907919,-0.0113579686964,-0.0537280004086,0.109597096482,0.0299482355465,-0.041910274317,-0.0696948422355,-0.0592704304547,0.0305735256223,-0.0438757133085,-0.0881118924406,-0.0880404224111,-0.108706264577,-0.0633725703866,-0.00222317908715,0.00312611243028,0.0464998783051,0.0659684382636,0.0389771620752,0.0751557075275,-0.212031090025,0.0145316011116,0.137402403039,-0.0424134410263,0.0783534018193,-0.0931062403935,-0.00832211576614,-0.0439772447475,-0.0168413674085,-0.0976196099666,-0.0761129355916,0.0671135946013,-0.056751525112,-0.0083508962951,-0.105821398036,0.0959554420551,-0.108998511783,-0.124007356224,-0.0189546187109,0.0264157710951,-0.052999331672,-0.0899995020556,-0.129904129282,0.0107568270422,0.0482902950412,0.216015399456,-0.154048017981,0.0598243223619,0.0686306528495,0.110712463808,-0.0973369870226,-0.105889874728,-0.0628482854003,0.0282004915778,0.0807856042216,-0.0396601183747,-0.0199316363823,-0.128407903427,0.0279548921121,-0.0462866748404,-0.029415954933,-0.00334471979693,0.025051730399,-0.0759899884324,0.0308575254252,-0.130541876708,-0.175303186933,-0.119291147635,-0.134193723419,-0.18505394335,-0.0981590086718,-0.0871787309472,-0.0347703783479,-0.20398851354,0.0114568756026,0.0383379989328,0.105129289122,0.0799776541305,0.0972747987912,-0.0590756681912,0.152057848999,0.0166823459226,-0.0360167734677,-0.00291004480447,-0.0135540157659,0.0245078748152,-0.0219595291224,0.0541489356237,-0.0637997530262,-0.0597924282466,0.0204021426874,-0.0424512405695,-0.109170989123,-0.044928076906,-0.141008995445,-0.229925448416,-0.212978465649,-0.0665499725198,-0.0811431221664,-0.0385487931006,-0.0228816515616,-0.0605330357111,-0.0651845048223,0.102887067619,0.00147882808074,0.160025374527,-0.0125903592836,-0.058375341612,-0.163607128945,0.0643181968525,0.00816921148899,0.0252796503659,-0.0824337053751,0.0545647309505,-0.0452787626954,-0.0618505844845,-0.149839748669,-0.153785049866,-0.0652876395903,-0.0362887376553,-0.173047463826,-0.0740419857919,-0.13697235765,-0.0247198783374,-0.104752235174,-0.211250103861,-0.204882198912,-0.0242027200135,-0.148781413656,-0.0441113805662,-0.151350346244,-0.13666711368,-0.0188079712446,-0.0943356835066,0.090080622139,0.0679173178899,0.00325267994838,0.0289176703362,-0.0624927217384,0.0904736317443,0.0509029140687,-0.0641915402637,-0.0374407190704,0.019297598739,0.00373040680788,0.0393383226726,-0.0588233977478,-0.0732610890277,-0.202219465906,-0.0651873390252,-0.0466112178656,-0.0766461415021,-0.190717220222,-0.287249295719,-0.278087535972,-0.200874366659,-0.0611953978114,-0.0530522682894,-0.0967705463661,0.0610196321359,0.0378769741116,-0.0876903871045,0.0457534060453,-0.0265105016726,-0.0391427635933,0.0265212123713,0.0139951768644,0.0474379243501,-0.0372448066274,-0.0157829249874,-0.13799205612,-0.0745567192475,0.0319388654051,0.0111331356765,0.0717833641454,0.023165446913,-0.114289894515,-0.101929160778,-0.0917027214861,-0.09858326851,-0.201844975966,-0.337253695201,-0.159770811742,-0.209616353378,-0.261052342818,-0.220922932168,0.0170576700912,-0.0305991141805,0.10122263639,0.132101348774,-0.0828219620819,-0.0328074201978,-0.128314335952,-0.0367833133277,-0.0535343978235,-0.0511933262474,0.00514304532359,-0.0580611864726,-0.0470041431807,0.11196126326,0.055395797229,0.00691485512615,-0.0836886869156,-0.0907972467375,0.0279630377624,-0.0527009563416,-0.178676356433,-0.123783828223,-0.314466585197,-0.285869574221,-0.158708337404,-0.160099637488,-0.140758380906,0.00567265688999,-0.0353458797417,0.0153274957746,0.0619859473835,0.0414799949164,-0.0952078357874,-0.0360390333663,0.0571194489399,-0.0805548407996,0.0837526759103,-0.137949438988,0.0152434671158,-0.111629776303,0.129653987434,-0.0204967577409,-0.134768657526,-0.063217345447,-0.118989932094,-0.154565087549,0.00263781725629,-0.0805130532421,-0.0627738718813,-0.140680460954,-0.249884688456,-0.357973137869,-0.272680410889,-0.179140735153,-0.10687536962,-0.104250269029,0.0855259229162,-0.0211339220493,-0.044561071295,-0.0376530236335,0.0312844525059,0.082090106419,-0.017315624772,-0.00799073792154,-0.0402075231837,-0.0226042333336,-0.215521748065,-0.00815263680072,0.043182615595,-0.0447940205185,-0.13457420328,-0.0586680236519,-0.0845368735376,-0.0910833250091,-0.0149443655807,-0.0425556676343,0.0180072698422,0.038203506296,-0.223311366628,-0.13749993906,-0.136429123254,0.0278463173309,-0.0830754001215,-0.0941626724474,0.0361399798477,-0.0106026916874,0.00939713231305,-0.081707508992,-0.0937080135725,0.0246019468537,0.0765706843558,0.00568841272851,-0.0194623608197,-0.148294960354,0.0559766853121,-0.0427625766532,-0.0677788897961,0.0663960029146,-0.107059831588,0.022699606399,-0.141605877674,-0.0699909923281,-0.225280083006,-0.0904341595532,0.0491887448208,-0.114421730855,-0.245547878012,-0.225096289573,-0.0505299770306,-0.119784999667,-0.080669933266,-0.0540292258794,-0.15327538121,-0.15095833964,-0.0316085104188,-0.177166829324,-0.167376431965,-0.0197609390435,0.0498049732636,-0.0864691282731,-0.0408407182355,-0.00958387688921,0.0198459268712,0.0458705489937,0.110765398849,-0.094409983797,-0.129060853093,-0.141866219847,-0.276198896656,-0.174280372209,-0.275883344001,-0.100941340303,0.0429202389946,-0.161265681715,-0.282672989739,-0.181426584686,-0.114831750337,-0.0722237064435,-0.0964657781556,-0.119652058979,0.0458852766055,-0.00925362186331,0.00209285120329,-0.207954539884,-0.168422389006,-0.117172945748,-0.0608631308049,-0.0203189301754,-0.0981400172078,-0.0534647958575,-0.0275873183456,-0.0253712182492,0.0433069793884,-0.0503022154115,-0.107310027096,-0.0694927176304,-0.167463528683,-0.332657818324,-0.174553241762,-0.133955270086,-0.0896909196366,-0.236194145994,-0.237182661526,-0.24171674853,-0.021469903979,-0.207594380291,-0.0583509280793,0.037757036031,-0.0938874505131,0.0809079025174,0.0203840061801,-0.130980268603,-0.047651111481,0.0757502246545,-0.222208960868,-0.0658584693123,-0.145974420296,-0.0513798121989,-0.00317304055845,0.0746372232764,-0.0877318156227,-0.0373220361642,-0.121793032794,-0.09471113688,-0.297148205199,-0.164054934574,-0.305739764854,-0.101883861138,-0.0413874133503,-0.198021509833,-0.202461622495,-0.207931404046,-0.0776949947142,-0.177376360984,-0.185297527358,-0.10241567543,-0.132660697872,-0.0878604734927,-0.0312115464335,-0.0688903125902,-0.0591741663484,-0.0292491524623,0.0532456648452,-0.0624360768136,-0.0725881125109,-0.0364001459973,0.070711070033,-0.0398218491139,-0.0410781521623,-0.0951125799155,-0.0647624932776,-0.0495519167235,-0.0519552863795,-0.233268100746,-0.0744336895413,-0.0611460415381,-0.20607984537,-0.293184961968,-0.220608572069,-0.254875501106,-0.231539515162,-0.0894851260367,-0.161542883693,-0.203803884928,-0.0673340758789,-0.060128746473,0.0520626606487,-0.0559092681704,-0.0246327401179,-0.160879311878,0.00308440034404,0.0272407931186,-0.0467447497181,-0.0683621495914,0.0555442231792,-0.0766863676893,0.0630335284296,0.0316454118183,-0.0176477998045,-0.0328265149625,-0.0209830229589,-0.0193508825243,-0.170221703283,-0.131341058123,-0.21757473063,-0.228905889664,-0.330660051607,-0.0570112592178,-0.152883092824,-0.167905996191,-0.155560587363,-0.254109213474,-0.0814292506705,-0.0443902249309,-0.126594451762,-0.122077333917,0.054263706348,-0.0377939696521,-0.0915397750765,0.041523953826,-0.127242812247,0.0568668939634,-0.0234187281668,0.0718493139402,0.133693657052,0.048161168449,-0.0908391072106,-0.169403108328,-0.188193665561,-0.101959932937,-0.0863368764344,-0.206489178634,-0.0137069575604,-0.20918173924,-0.199393713979,-0.202290547057,-0.165316094526,-0.335065605583,-0.0850071088283,-0.223677540265,-0.171482663023,-0.080465522718,-0.126625438198,-0.0352228147043,0.042145483096,-0.00664489130636,-0.0135157579617,-0.112948042901,0.0863225294604,-0.0210116195999,-0.00977891275442,-0.050461522344,0.0602687781679,-0.0877246021724,0.0369259380226,-0.0111426634965,-0.0905524900638,-0.137832974243,0.0326914713459,-0.227647387299,-0.31894070122,-0.170795456258,-0.237905483576,-0.0959825345347,-0.0850377784683,-0.22133766287,-0.0180955338514,-0.160060723441,-0.142090973176,-0.184600499506,-0.01069987787,0.0885446110247,-0.0433144587523,-0.042749572104,0.143936765928,-0.17433911408,0.14083289338,0.0287957383811,0.0285231190758,0.0253459867824,-0.0309827525345,-0.0508910085687,-0.104425939882,-0.239484120907,-0.106833214359,-0.0787841860769,-0.152896972838,-0.25114110205,-0.253768286855,-0.228509667256,-0.0927528437059,-0.168938725474,-0.17691437692,-0.202149018953,-0.157677208656,-0.0604376699583,-0.0274132680576,-0.0473370149018,-0.0404915981824,-0.119446177985,0.0445605630184,-0.0663064642209,0.0804186983673,-0.072314081104,-0.0257062275777,-0.045134001993,0.035446256017,0.100793410846,-0.0848274519654,-0.136847741333,-0.0473915704495,-0.113672999479,-0.235347245226,-0.151141703484,-0.23382763519,-0.125442775966,-0.135788020667,-0.145734443207,-0.0965946974283,-0.182152885702,-0.0928889558334,-0.0515565550213,-0.140785329007,-0.0352927405732,-0.155620136588,-0.0813925796926,-0.0676991369578,-0.013488266558,0.0860430435603,0.0355240114929,-0.0405640324057,0.0358309106576,-0.0878474292239,0.0555285565204,0.0967570639373,0.0365408477433,0.0640034082156,-0.158610034505,-0.0767380127634,-0.0984253238732,0.0313629614982,-0.0822351034541,-0.0445059916977,-0.107782575405,0.100161412352,-0.00378560297758,-0.250349185188,-0.144472343494,-0.175111117701,-0.185348366449,-0.0800917682783,-0.0705312568595,-0.160344233617,0.0502329466935,-0.0396059720872,-0.00108724206117,-0.123504998127,-0.091591863826,0.0289709781861,-0.0519994569381,0.0551124086855,0.00755686064457,0.0108603351917,0.081141226091,-0.080542793624,-0.0961243798498,0.103357644228,-0.0551318684266,-0.0679570652156,-0.090011769995,-0.0279111258416,-0.00609930097669,-0.0197767079977,-0.0131248032967,-0.0990458358831,-0.16749231736,-0.0460479586099,-0.0944711493307,-0.116942128301,-0.0125925069992,-0.0960423912674,-0.0209864136829,0.0728956723488,0.133359432276,-0.104387773757,0.0272977993807,0.0133414346446,-0.0254053720454,-0.0103688153019,0.011840829376,0.0667928496961,-0.0124171278229,-0.0194689534147,0.00733701820038,0.00559582779263,-0.0232272455201,-0.0150367140326,-0.0220279292725,-0.00505743305915,-0.0887964819575,-0.123201765446,-0.0260448988556,-0.0706124377449,-0.0411868062062,-0.0471033589149,-0.113227925545,-0.109909347278,-0.110903605565,-0.0199769681467,0.105996816181,0.061742653914,-0.0166897414735,0.0731533317374,-0.0228109484642,-0.114077869262,-0.103905272553,0.0636907023122,-0.0223667606558,0.0646603625398,-0.0143338023173,0.103154484909,0.0663090774953,0.142293349546,0.0146350146353,0.104230915349,-0.0324225063009,0.00684608177161,-0.0933340131902,-0.0013642939944,-0.13351997799,-0.0441676066097,-0.0707405448601,-0.111941506943,-0.0306464049031,-0.0133684470557,-0.067591318839,-0.0853231195459,-0.0146253304064,0.0753614145205,0.0272919849652,-0.155806239076,-0.191355242737,-0.014348916278,0.053878905364,-0.0377265535594,0.0292759711653,-0.0795499254129,-0.0916875962932,-0.154351522045,0.0367264625991,0.0207710824573,-0.101659785428,-0.127359004302,-0.0492295106742,-0.140450307343,-0.111194034374,0.0484097648296,0.0109174483345,-0.0673729357292,0.0467980163061,-0.0631475643472,0.00732515976796,-0.114183329006,0.0318512538167,-0.00551221333114,-0.10510944371,0.0767913466122,-0.125601060276,0.0737682253613,-0.0198498275349,0.01806344684,-0.167567741548,-0.0954323925249,0.0299870906921,0.0305210211967,0.0163328834432,-0.0341344093705,-0.034843149063,-0.0987666969794,-0.0407379839392,0.0365964149749,-0.0607276558255,-0.0913770218274,0.0800936212221,0.0228291377236,0.0406439429028,-0.0358014857474,-0.0705048506086,-0.0900093460117,-0.0317646297879,0.0219246402537,-0.0674059448408,0.0844799713123,0.113509068092,-0.0231894337784,-0.0719325526407,-0.0305600637418,0.0969039983388,0.073102407629,-0.0621806045006,-0.212253191607,-0.151667904929,-0.230593220794,-0.0999468773384,-0.0801281837288,-0.271485810754,-0.191114455365,-0.122902261526,-0.148882114636,-0.165545594587,-0.0103344110157,-0.0289159285798,-0.1573380515,-0.099297071036,-0.0286278300718,-0.000294713150296,-0.124346410731,0.0107030718251,-0.0771512205053,-0.088825186341,-0.170712130135,-0.0894987609659,-0.0721562897208,-0.060915627608,-0.0771458908032,-0.253613365217,-0.137506439552,-0.0997830324703,-0.0719255744963,-0.0418928597942,-0.0754714774869,-0.17480733705,-0.119020939005,-0.13692986635,-0.19912934921,-0.133185170777,-0.202228045442,-0.124151389917,-0.161014666607,-0.146806819719,-0.133451024951,-0.175007497616,-0.109390258501,-0.068431285518,-0.0772043820096,-0.156365170839,-0.15132776348,-0.123639393101,-0.144734374637,-0.103173742837,-0.145227076083,-0.120542474723,-0.0907739748453,-0.101620490146,-0.0955743320238,-0.121906557304,-0.19112459625,-0.0907328780386,-0.0903722165427,-0.0768986519771,-0.13595954087,-0.126260122667,-0.228024077264,-0.209672104997,-0.180496101632,-0.330291259185,-0.411762710231,-0.300434961088,-0.25829947441,-0.361674492863,-0.310173619684,-0.516185306284,-0.71491627205,-0.775358659869,-0.538140645514,-0.499724423581,-0.47409809397,-0.239589845181,-0.257797484869,-0.14166218092,-0.107075592085,-0.14814064593,-0.215218751173,-0.0791609589685,-0.216465276038,-0.0263989801713,-0.174216654629,-0.108116246207,-0.0837834974598,-0.282111927068,-0.169984058912,-0.193842711831,-0.250631253539,-0.481829058197,-0.476907291098,-0.791999705911,-0.790006699293,-0.331423717724,-0.74179361163,-1.08623660873,-1.22052115839,-1.33228625092,-1.69463380251,-1.27696850475,-1.17725856415,-0.95778964911,-0.579717943486,-0.230159719921,-0.363137046036,-0.216672066848,-0.268941970921,-0.0914741919905,-0.113538974236,-0.195607067159,-0.0566105632917,-0.202861166285,-0.111793908967,-0.22090693431,-0.261446149821,-0.411632589139,-0.346455854459,-0.318169907689,-0.563296570234,-0.585705003545,-0.537535157472,-0.380214027695,-0.317000726534,-0.228981433081,-0.206933170012,-0.300698447958,-0.41049000291,0.101584558717,-0.181189786405,0.00508992919479,0.307746599837,-0.321347521616,-0.676941169485,-0.447821809344,-0.169383607584,-0.0487568116529,-0.116160258398,-0.333974361089,-0.194630497309,-0.195480123544,-0.00348802291088,-0.297951665318,-0.341711238697,-0.705528482085,-0.54899708537,-0.375159140717,-0.385161131711,-0.355294099046,-0.343030538648,0.125820164585,-0.117638767645,-0.0485437700397,0.116816506554,0.316387039614,0.453952513176,-0.140091155214,-0.301957514748,-0.281359199736,0.165976817055,-0.472795818631,-0.750839744268,-0.529577854868,-0.217830976793,-0.191911714549,-0.0140326630933,-0.103117738909,-0.236164009993,-0.269329710145,-0.279035420634,-0.444550207956,-0.401347813123,-0.624648190491,-0.643608808133,-0.809277841283,-0.172581271896,-0.0215701127705,-0.547283609407,-0.348017691393,0.528818622914,0.0459363456924,-0.076523994335,0.374606080428,-0.0958579455859,-0.13739430526,-0.229201664027,-0.128257414052,0.11265875548,-0.333492734799,-1.35998817441,-0.506816885269,-0.374764162398,-0.203058018619,-0.217891539253,-0.00460217592237,-0.0895103460731,-0.253208804948,-0.263788590465,-0.347904488793,-0.329568585966,-0.246566875184,-0.943239861583,-0.548875767661,-0.18377293395,-0.139717332615,-0.590386244399,0.0556611408744,0.392086399687,0.299557199504,0.00934622237415,0.158239046178,0.599980361737,0.56546208346,0.243524849832,-0.187535442672,-0.127147608383,-0.50708519035,-1.06848984391,-0.74568750526,-0.372395582419,-0.305215818763,-0.119891365045,-0.0619645964822,-0.211185480418,-0.134745421624,-0.25995773041,-0.279831991435,-0.0606464684593,-0.528154473167,-0.288521881772,-0.076949786999,-0.223494485943,-0.169818634705,0.296046056941,-0.762034796476,-0.00420309470368,0.437224021734,0.567049546467,0.318384760742,-0.187000876624,-0.131188935892,0.0347402912997,0.00756107930826,-0.142856749946,-0.0593017801461,-1.10737603062,-0.903514152286,-0.181110923084,-0.105174760179,-0.195830935034,-0.0868330548085,-0.119199107767,-0.300935836665,-0.240750634964,-0.223972397253,-0.34794502733,-0.130563751347,0.149182142078,0.0070426145942,0.171193847483,-0.484084244018,-0.0534996988323,-0.119265180772,-0.143094652478,-0.21535492666,0.480306453513,0.476888669398,0.159898756703,0.39870296016,0.328772635729,0.332757636437,0.183090699588,0.0519992338226,-0.802512357759,-0.833683427016,-0.218293239244,-0.166485336005,-0.0668217494681,-0.177491435767,-0.11828464435,-0.1469208836,-0.32220786667,-0.319505732262,-0.665547400136,0.0306252505952,-0.21089656429,-0.158966203287,-0.446025446854,0.0832927820755,0.140957914533,-0.592798597889,-0.385662331515,-0.370773382651,0.0440033476163,0.564299025999,0.400823291133,-0.180071355374,0.35216389524,0.56166244676,0.224202773305,0.428700645494,-0.315716376203,-0.886198971744,-0.333006459592,-0.0515353305767,-0.190399123684,-0.029950086958,-0.145388336795,-0.316467978407,-0.692795805546,-0.386509876376,-0.394591284013,0.328284732442,-0.171848530214,-0.0110729695764,-0.135797249879,-0.103514580719,-0.109862268174,-0.02776346184,-0.985020307709,-1.00332173307,-0.430540486893,0.0441328020468,-0.116093195302,0.309328544761,0.192706087853,0.657599428784,0.033197118627,-0.142480238682,-0.0233100358417,-0.689178029502,-0.299675008069,-0.0504536571379,-0.110198144913,-0.0523650037966,-0.121139254175,-0.241299610292,-0.532047227642,-0.241055531575,0.222998091576,0.174857389046,0.187888740222,-0.062535537068,-0.131714840928,-0.0538312002831,0.14118414532,0.570712772842,-0.718485977505,-1.15437615884,-0.820854684668,-0.243998012491,-0.217349703212,-0.261346535033,0.103753298056,-0.0429323767243,0.13510936629,0.428418510909,0.472420812185,-0.263851295613,-0.419964897697,-0.169132521623,-0.149081677195,-0.133029465708,-0.0107469081501,-0.153384828557,0.0137229572737,0.0669685720219,0.389410667962,0.0955855138142,0.330571884815,0.130178806254,0.548760366691,-0.868976745109,-0.257710468316,-0.34808672462,-0.76080001118,-2.11026603341,-0.943502006139,-0.141005385949,-0.0370463195608,-0.495410619803,0.0787067903082,-0.283966901146,0.661061825156,0.882328820609,0.224379127606,-0.263295247557,-0.0974233595563,-0.143146019218,-0.277693406816,-0.1426166057,-0.212252135488,-0.346060879526,-0.0714533726739,0.28519369448,0.0284464452167,0.28177702688,0.281872013745,0.412733028088,0.0939077681904,-0.108809424274,0.398048478204,-0.102947675653,-1.75800886718,-1.50532281886,-0.302952593539,0.0267772025301,-0.353192298266,-0.477516927498,0.071543029964,0.136619859239,0.222188789579,0.567271218923,-0.169178313192,-0.283056894663,-0.185526013594,-0.0711005880734,-0.128612106819,-0.188806439614,-0.207283579574,-0.268683743156,-0.223795589812,0.352399974551,-0.0416207968679,0.506496203473,0.407616501319,0.443091719083,0.269005703068,-0.172653705458,0.879359773387,-0.867178283126,-2.15957581151,-0.93733662969,0.2219097643,-0.221906112214,-0.486749530481,-0.0195322002866,0.26687564364,-0.278476210172,-0.00808899167336,0.323478869816,-0.00365293614362,-0.328478741623,-0.178749671811,-0.167986437011,-0.218835397844,-0.212296160666,-0.143649035024,-0.352297474068,-0.271030582715,0.397864441018,-0.134586390061,0.328545851858,0.591343840943,0.778375557138,0.444467630542,0.488356569635,-0.0566852091679,-1.98214694869,-1.81795185331,-0.328731318662,0.0641737185687,0.16919954804,-0.0462980221253,0.168091142567,0.158014876462,-0.156568800092,0.298910496082,-0.15812836366,-0.309234828315,-0.291913765646,-0.304358067963,-0.125654410654,-0.057823333656,-0.203178217669,-0.149829324889,-0.468452637,-0.237130767762,0.453667398424,0.42375706278,0.313869750827,0.0778116880569,0.374301642828,0.831435682011,0.0154355013474,-0.946638802541,-2.02442419096,-1.19008728132,0.0819638537116,-0.116716240586,0.420560385187,0.0270271628526,0.378731778247,-0.0588394260034,-0.417612600132,0.492978839074,-0.23319882916,-0.136076211736,-0.338492038438,-0.144685996114,-0.107476691866,-0.220304261038,-0.216893785539,-0.11044806934,-0.71570790246,-0.484246034416,0.237121944881,0.354725247686,0.0262477860618,0.447965930144,0.479766852115,0.968018973308,0.436319426767,-0.562805233702,-1.80710862273,-0.513593608603,0.296851801067,-0.126851575476,-0.347395137227,-0.575354659348,0.0354312024673,-0.328510907868,-0.232761743256,0.0951128308293,-0.592277551154,-0.508795440227,-0.211233663577,-0.24406153448,-0.192514781498,-0.106474951948,-0.149694059811,-0.109453593044,-0.605174873857,-0.228322976848,-0.219143330016,0.0209552076311,-0.479725059738,0.45039190291,0.249907831688,0.816233720825,0.840792761741,0.00536056001566,-1.26895427948,-1.05321936043,-0.729607418069,-0.256526127451,0.00549666900631,-0.327665388872,-0.114725733867,0.107949022182,0.10579498032,0.145565872053,-0.671968135613,-0.665196726633,-0.197904614906,-0.146808701816,-0.16183127067,-0.0765472792625,-0.0769670194077,-0.2723084197,-0.532276268529,-0.150443448803,0.210214623497,0.296297220562,0.0221607811875,0.271879768697,0.30914608477,0.839202865908,0.996458728112,0.485632958429,-0.169595678513,-0.986334385536,-0.386294207176,-0.425715413096,-0.136009633264,-0.229283097344,-0.412865559263,-0.0337988684886,0.188950103639,-0.0591801036874,-0.503072731912,-0.725183149874,-0.211079887248,-0.183473051131,-0.015653811737,-0.219028647943,-0.10995537104,-0.149565732403,-0.292046422987,0.00963741279052,0.0802788880609,0.17764794804,0.0825201470378,0.180896409019,0.264592467106,0.171776642219,0.995356060142,0.683421746105,0.367014968561,-0.0135367437152,-0.516211890417,-0.211250622026,-0.234355195652,-0.630532734907,-0.739832088501,-0.121169076355,-0.13437851452,-0.182005337497,-0.606714160146,-0.413045498497,-0.100063983442,0.0218498586897,-0.127476509129,-0.145523350045,-0.099538053395,-0.156904149964,-0.17612135051,-0.513432479998,0.140782273887,0.465018283979,-0.0701402954994,0.153542383767,0.36283176799,0.00740095135223,0.566624655916,0.215777707919,0.57920450585,-0.17818227986,0.134156807648,0.191995749356,0.0507921183164,-0.492871707431,-0.159979024849,-0.12660177541,-0.253359111955,-0.0871496638385,-0.409850857309,-0.286416949979,-0.0387004719405,0.0191193589186,-0.112051422603,-0.019333472552,-0.0942693954241,-0.123496359826,-0.138686989901,-0.543737558774,-0.348666179661,0.0986372375735,0.316215815639,0.0258605636032,0.108653136987,0.168037510335,0.473231956592,0.416310197643,0.392095212267,0.689669729518,0.355650887703,-0.265502298184,0.180821620228,-0.177454169515,-0.390829212858,-0.414051370367,-0.357959376483,-0.20614240551,-0.288593529804,-0.117099763408,-0.209488778154,-0.228078085792,-0.172620737943,-0.213477994378,-0.211284653182,-0.111157981058,-0.151132519929,-0.173191922089,-0.250020854998,-0.357035986601,-0.205327209377,-0.483761372895,-0.0131586698079,-0.66544035195,-0.710668496024,-0.0547231484307,-0.414841326235,-0.0306425000596,-0.100610611125,-0.290281442867,-0.335369671717,-0.502476592972,-0.363948889282,-0.498957392528,-0.652699604496,-0.317230221001,-0.22802408652,-0.0600039598655,-0.0261473158407,-0.0281789239323,-0.036186987039,-0.171645966335,-0.121200651811,-0.157106961862,-0.123850672523,-0.209089158075,-0.262491728885,-0.65641900517,-0.951377042452,-0.862535661904,-1.10542991826,-1.55822092846,-1.28922504299,-1.45371241709,-1.39994898546,-1.40826431953,-1.36991545934,-0.939333266443,-0.964295073911,-0.65076005195,-0.468155307304,-0.527535335224,-0.523129952534,-0.379127478793,-0.114933347978,-0.157644732556,-0.156650441328,-0.248395025602,-0.144280714997,-0.00305719362255,-0.248573640867,-0.130374643675,-0.0993786094535,-0.00856090961945,-0.207164857776,-0.313274802205,-0.263423428122,-0.42084595888,-0.638781977326,-0.813047616599,-0.54492865541,-0.399383072164,-0.57939117973,-0.73656075327,-0.718757128096,-0.391227762959,-0.294680014444,-0.256940902546,-0.302156663495,-0.295691500722,-0.321059460469,-0.379802974019,-0.133416881979,-0.220940423159,-0.350519825634,-0.098704542902,-0.10033123085,-0.127713007485,-0.147937010631,-0.160897874723,-0.147035683385,-0.0954550051996,-0.153105940082,-0.136004938889,-0.133286443752,0.00128213146053,-0.265313410893,-0.228683246903,-0.0566082312224,-0.106955820298,-0.158657783295,-0.277978761194,-0.225738984934,-0.111229937388,-0.0965329768437,-0.231832603441,-0.154543768686,-0.267629018351,-0.169306947436,-0.44352180392,-0.195403974367,-0.2544538661,-0.0945791067254,-0.156294179406,-0.235175890957,0.0646464283286,0.0417726479271,0.00718238155819,0.0635590828566,0.0445107964639,0.0351930795765,-0.00849858204452,-0.00227908370833,-0.0371916899297,0.101609492197,0.0340687560148,-0.0110397178091,0.0331752760495,-0.0308151010772,-0.00990347412951,0.0433543040194,-0.0491695551511,0.0816640304564,-0.0852077747614,0.0750763984008,-0.00404359839754,-0.0697328954494,0.143334917766,-0.071997838318,0.00623494407551,0.032668171076,0.0580740474994,-0.0977127908888,-0.0668787848134,-0.0814600351806,0.0478198562439,0.0377584300969,-0.00234821155422,-0.0303789831674,-0.0565627594437,0.0830852735556,-0.087433543345,-0.0755513887416,-0.0552739920984,-0.133212225433,0.0114667761618,-0.0600719870271,0.0320024055834,-0.110374806365,0.000143874312571,-0.0709595254675,-0.10679112745,-0.11252334927,-0.0430156371472,-0.104876845189,-0.0615317130636,-0.0259490844481,-0.143922544745,-0.0104880993999,0.00464276807711,-0.104243102252,0.0989459620723,-0.0213845516305,-0.115164223442,0.0757357966298,0.0203112993162,-0.00653107400143,-0.0478234591147,-0.11270403887,-0.0610120521223,-0.0432127614347,-0.00178581189606,-0.0861855487665,-0.0639512265945,-0.0362122385049,-0.0361630792628,-0.0955233545533,0.0705041160255,-0.0602865813999,-0.0746869639161,-0.0150735828233,-0.11107356778,-0.117679279507,-0.00494328234739,-0.112346935867,-0.0352505394103,0.0843212122862,-0.022254761868,-0.0881906360091,0.0642550337775,-0.0693710206744,0.0400496166728,-0.0172420312513,0.0142366692517,0.0373222588173,0.0148279038086,0.0605166057256,0.211074377464,0.139691991056,-0.0668764938238,-0.0894799597819,-0.0736599087377,-0.222584273359,-0.17429622987,-0.19333124961,-0.225812421922,-0.0446439196193,-0.06590578851,0.0116263907812,-0.0796285753779,0.0324306404466,-0.0562795778638,0.0496881465524,-0.0250149333719,-0.0495250811949,-0.0342607140322,0.0370091619328,-0.0546356862983,-0.0585884433761,6.53679272627e-05,0.039949846263,0.0670554792482,0.045082972662,0.0207584557131,0.0288995064416,0.00088781445251,0.0313506655796,-0.02854795383,-0.0886928886752,-0.0408108127314,-0.0604059348145,-0.25101737349,-0.178175542412,-0.148007480535,-0.0988348871014,-0.125160426514,-0.123713526126,0.0242359086452,0.0405274953745,-0.217622324774,0.0393222733909,-0.0665236275632,-0.122962559701,-0.0785740265249,0.0498774053213,0.000174634961415,0.00594165215031,-0.0502717522552,-0.070101381949,0.0738550737511,0.0382544659172,-0.0473493173478,0.0500591837114,-0.0258394909766,-0.100190042446,0.00962068002261,0.0167217164257,0.0221187755298,-0.0540414879134,-0.280107253208,-0.210862090667,-0.196737349761,-0.0584182284535,-0.0301980783305,-0.0744515537935,-0.133022748458,-0.0416002989122,-0.156241685087,0.079776292229,0.0377289285012,-0.0299519493888,-0.0275098948474,0.111703661949,-0.0337605252419,0.103903740125,-0.0866496132243,-0.0870654509484,-0.0953898807509,0.047974510458,0.0569908318405,0.0222210110595,0.0559602652153,-0.0382375557701,0.0828371675398,-0.0078192829087,0.0353988366865,-0.166306368142,-0.363733021163,-0.256388302692,-0.147680554416,-0.229838248797,0.0184118640798,-0.0393948456971,-0.0605798323475,0.064861406708,0.127873480696,0.00328039999033,-0.0558509446382,-0.0473490798521,-0.065163119165,0.0371407338206,0.0831404538003,-0.0608376427634,-0.016216394568,0.00538720738326,-0.0406799824692,0.129241534358,0.0929349748164,-0.0547733306663,-0.0292471262194,-0.00390687031919,-0.0537257400324,-0.000333244245702,0.0336971270543,-0.240407055131,-0.383095980821,-0.326866856894,-0.311922186585,-0.101583778874,-0.060766979055,-0.0213335836007,-0.0010484005557,-0.0165537160585,-0.0300117186898,0.0156064370737,0.107033809751,-0.0337788178442,0.0596823131402,0.0259537532286,-0.00446619913263,-0.0890572356445,0.00709915909347,-0.0121819447239,-0.0235034842075,-0.0633901655159,-0.0657552270166,-0.0253263459808,-0.216352672384,-0.189082847345,-0.106586335758,-0.0822073492425,-0.207411998926,-0.281615277049,-0.375168995661,-0.333170474424,-0.0654808418055,-0.0718075730928,-0.0358825944703,-0.213299569691,-0.0807735062069,-0.100825478806,0.0710100176909,0.0374693905445,-0.142023208218,-0.0485732192215,0.0301530927772,-0.0557430211538,0.0141004184728,-0.00691768263461,-0.0131090985355,-0.0446458894831,-0.042204960913,0.0825251626002,-0.181018931002,-0.109646862701,-0.120465378929,-0.189531138934,-0.106978202222,-0.245379581284,-0.118177547224,-0.291966955466,-0.398009725821,-0.255991276654,0.0292084905194,-0.195128093759,-0.320282565031,-0.1365136295,0.060717685605,0.09387584607,0.000677776109681,-0.119908802519,-0.0795729611372,0.0489572217906,-0.0772678255509,0.121764950377,-0.0850824733442,-0.0621552734981,0.0460186224621,0.0601947404245,-0.0797118098532,-0.197465543934,-0.117650859978,-0.277807077159,-0.153894769443,-0.212706029227,-0.0751216529377,-0.167976079629,-0.29526531548,-0.231377493523,-0.322021822829,-0.201567311153,-0.167553820511,-0.203707637532,-0.17540630478,-0.0576976743512,0.0248917199679,-0.00542466262959,-0.0515630047297,-0.0576767387044,-0.0667066178124,-0.00727667126141,0.133428389381,-0.0439514067585,0.0248660529331,-0.0167321283846,-0.0686917391842,-0.0411471103583,0.060442021018,-0.223575260732,-0.125117318288,-0.177782327678,-0.133096133877,-0.0781925229143,-0.151299021081,-0.193030208715,-0.0578482043739,-0.271351966875,-0.262208637975,-0.116052620431,0.0263671833493,-0.0691436218852,-0.0986402165904,-0.186652026678,-0.069147319798,-0.0774685398107,-0.140914836477,-0.0148963169469,-0.0341336637593,0.105626187741,-0.0593655846259,-0.0356685068135,-0.0503703422096,-0.0218982920218,0.060159744015,-0.046837086468,-0.0868057464805,-0.24288993957,-0.328573508103,-0.165190968215,-0.241248612906,-0.0877959503646,-0.0116351203704,0.0837536362947,-0.0798047215268,-0.14613481201,-0.211803519435,-0.268868056376,-0.12489674165,-0.225045139773,-0.200151751105,-0.172903741193,-0.295738819164,-0.28772215755,0.061797150886,-0.0523812305389,-0.0977406595076,0.0309881568791,-0.013922384829,-0.0448257406484,0.0545576544007,-0.00757715192341,0.000773159950742,0.00891983145343,0.0255531811998,-0.0635577341882,-0.0475982797624,0.00423898641806,0.00771057447576,-0.0801174254348,0.0314905081744,0.097140606063,-0.284719263692,-0.27847645184,-0.237746434258,-0.249117596593,-0.221400378082,-0.00184420805918,-0.0610814687685,-0.096243474012,-0.08616998651,-0.103791022004,-0.0956240808746,-0.0289311103551,-0.0969614330794,0.0689793839224,-0.0829506346745,0.0409509578867,0.0747700751353,0.123644815622,-0.0956223457162,0.112323799903,-0.00664730308831,-0.029152088793,-0.0040809383302,0.0840619601075,-0.0324486669183,-0.0957190313569,-0.0367251632225,-0.0660592036386,-0.13553458071,-0.227703116791,-0.251423574084,-0.287975771707,-0.0516203557721,-0.0329716884179,0.0381443158736,0.0737813568371,0.065210636182,0.0426699561972,0.0471531106488,0.0789682728405,-0.0255943478565,-0.0572614829103,-0.158072009504,-0.0828023696134,0.00500410170277,0.0555743781733,0.0615575971428,-0.0414193032618,-0.0944149818312,0.0606954395769,0.0306853404778,0.237127447208,-0.00343088936165,-0.119117247856,-0.122067177547,-0.243342892584,-0.0865240388582,-0.310938997335,-0.28054350485,-0.244319189948,-0.179998645082,-0.051774614756,0.0205537756402,-0.122154833086,0.106872539237,-0.0288546799694,0.0889294611369,-0.181098322618,-0.10331428966,-0.035261038479,0.00435094385619,-0.128481386102,-0.0906112443665,-0.027610250378,-0.0387663519053,-0.164898935905,0.112253926782,0.0113447644461,0.0672008236423,0.139318296047,0.0247768617881,-0.262849472509,-0.257513376386,-0.192144908281,-0.375906040499,-0.294064906758,-0.206307067744,-0.134040842901,-0.123872175037,-0.122123925119,0.0657063885855,0.0858950721026,0.024375894028,-0.0894163180212,-0.205742084514,0.00303209572893,-0.0180087271088,0.0158541016093,-0.164577360395,-0.0634142257702,0.0541086858673,-0.0187182723217,-0.0529561228737,0.110606596715,0.0705155920355,0.0315447694564,-0.187752788334,-0.0970682518933,-0.08215329061,-0.395851312423,-0.440861697444,-0.320337162709,-0.304614959015,-0.245505123851,-0.315816844289,-0.268137742262,-0.0918845745925,-0.250630071993,-0.169549886886,-0.107289579562,-0.22999947422,-0.0523505797212,-0.00834199900202,-0.0332040053816,-0.105224109247,-0.0275813273159,-0.101275496916,-0.0455198305546,-0.0777590133789,-0.0813138992253,0.0328318580235,0.0202049208906,0.130573718941,0.00261747123219,0.0509666919434,-0.0983889852232,-0.228406298964,-0.225472938488,-0.278338515451,-0.315247856634,-0.391422439214,-0.189988332749,-0.125369740637,-0.344780714425,-0.232437519353,-0.273763370874,-0.163506707489,-0.259859463653,-0.115089877841,-0.0222621445835,-0.077985395823,0.0199863932855,-0.00545091873668,0.0675957861035,-0.0226612868043,0.00045889649281,-0.187208754845,0.0791893482213,-0.154994122318,0.0536214396812,0.0219073819386,-0.0449569327218,-0.0451696899629,-0.143967276516,-0.115451409841,-0.312897281513,-0.199713019068,-0.341730813758,-0.241347885696,-0.197754319454,-0.216849750359,-0.176384044872,-0.123594822975,-0.0887108438944,-0.157032465649,-0.150940203565,-0.0648611288966,-0.0887004491986,-0.242336343287,-0.100462422695,0.093946327126,-0.0130711940847,0.0507613027434,0.0385132032356,0.0217475732596,-0.0457315467693,0.0816419777043,0.0191481768753,0.0339150224824,0.00769125485701,-0.107124584824,-0.0736412204921,-0.170459275175,-0.181559156402,-0.172544751298,-0.282020393878,-0.177894223134,-0.0658709989906,-0.168473541929,-0.0456412912176,0.0190220651034,-0.0380546639787,-0.122248216918,-0.118246541893,0.0851815629424,-0.132784673626,-0.0283234512286,-0.0586679246971,0.00346269281768,0.0368088294075,-0.0790507969137,-0.00733756462139,-0.116296511341,-0.038122361718,-0.151796559068,-0.100382212021,0.070916656843,-0.0251664364802,-0.0905945281913,-0.212910879214,-0.153831009423,-0.0283032731564,-0.0618741971801,-0.00146074190488,-0.243157330422,-0.123635474603,-0.0013512775177,-0.23881280436,-0.162219019686,-0.0831701528758,-0.154062131103,-0.072062601501,0.038448053047,0.0561889228959,0.0444486076157,-0.145680821615,0.0340145075958,-0.106039074438,-0.032343726324,0.0801177455518,0.0214489488149,0.0123081682882,0.094661815417,0.00656195174361,0.0770545166194,0.0541826820629,-0.0399030521253,-0.207104812837,-0.222448984362,-0.0845953607255,-0.111649062627,-0.183239442148,-0.0882293948221,-0.0211600701174,-0.0619136003192,-0.0601225313213,-0.243712977106,-0.114346776702,-0.0588251650216,-0.0581670424641,-0.00363685700724,-0.0113529234612,-0.00766474026415,0.00517461195512,0.11116820875,-0.116422184498,0.0772421333237,-0.076277166122,-0.0575244435965,0.0283421107369,-0.140326858767,0.0813673788309,0.0467756915148,0.0371649131158,-0.0444351597858,0.0305976955977,-0.000482731403659,-0.0642501903788,-0.0289850469159,0.00974143341879,-0.113028650495,-0.182200153251,-0.0426966302433,-0.0849550829039,-0.0710555396368,0.0302259024116,-0.0710781797903,-0.0431522123258,0.00977333607563,-0.201723550612,-0.0801875525933,-0.0644942268834,0.0221778309405,0.0387172660016,-0.00731641083619,0.0104215334095,-0.134527021886,-0.112046572369,0.0789996213697,-0.0500885834986,0.0121652005749,0.0933492922041,0.0330293857746,0.0259470083249,0.00368491772297,0.00751081427257,-0.144632022248,-0.130438157944,-0.141665009247,0.0333221797367,-0.0622367150554,-0.166598985166,-0.126719427407,-0.166736842369,-0.175614208205,-0.105393019355,-0.117904227102,-0.0948279964545,-0.0415612842186,0.0157218943261,-0.131524955428,0.0732283770477,0.0932837352936,-0.0413229830189,-0.101911021198,-0.0052077217558,-0.0726912267313,0.0157620282901,-0.0253511403908,0.196425422671,0.0529656298016,-0.0797490106887,0.0692883295965,0.0390823754057,-0.0616420687281,-0.12951669538,-0.103338034139,-0.184910245009,-0.0954877880189,-0.174711162041,-0.0973419705471,-0.25581749288,-0.140951524501,-0.123882849599,-0.085259215093,-0.00872486624665,0.0189003618062,0.00520377094816,0.07661796505,0.0853693012083,-0.00937897904219,0.124534171073,-0.00168545178621,0.0170550710633,-0.0771300763322,0.00842261840621,0.0206231754937,0.00174026228291,-0.102627760841,-0.00115312333693,-0.0912763995282,-0.0906045949611,-0.0392939975647,-0.0695227437294,-0.138253040663,-0.153632432419,-0.0739942777159,-0.0197259860051,-0.0349128949938,-0.107769564215,0.0107908513402,0.0201947978769,0.0129630214531,-0.0276344652466,-0.101561901273,0.0505898689194,-0.149094007411,0.0396006642609,-0.133854715881,-0.115646970122,-0.0178791863859,-0.00643883666971,-0.00210005676678,0.0099741323534,-0.0464521128062,-0.0223293684569,-0.0769566239573,0.084348972934,-0.0301156865392,-0.0892895036759,0.0368862192769,-0.0283074013649,-0.0553367241151,-0.0162460377561,-0.198081560278,-0.0476141824165,0.0992929175992,0.0182572100807,-0.0319158260469,0.0476082849651,-0.0490213449918,0.019450994362,-0.119233724391,0.0570254873837,-0.0394573143002,0.0720800407422,0.0476558660447,-0.0230962589215,0.015816765494,0.104748648974,0.0821421170013,0.0491797372164,-0.235614834374,0.0418707409523,0.0739733101364,0.0572026003581,0.0135089852922,-0.158699419331,0.0565261980548,0.0610950990058,0.0411537982317,0.0270930549344,0.0957453595026,-0.0705490467661,0.0861822012828,-0.112734781851,0.104527963775,-0.0409242746087,-0.00161541069251,0.0519342766776,-0.0920265549111,0.0325914639378,0.0554472003019,-0.0119573449517,0.0936797040905,-0.0857037477089,-0.0345648780863,0.00330861003784,-0.0110490113618,-0.0255290116498,0.0363932131805,-0.0259149938092,-0.0544792558101,0.0264629491488,0.0432308572409,-0.0991044364792,0.0822915102168,0.0943015019047,0.0686640065678,0.0178415111504,-0.0756848881832,0.0188216239299,-0.019085518096,-0.109146121547,0.0709758157228,-0.0522049117955,0.0247329605799,-0.0361283436386,0.0248889143007,-0.0661432515313,0.0513942520147,-0.0154257288648,0.0914717911898,0.0373880627322,-0.046985786348,0.027138798705,0.0068470669654,-0.10425194592,-0.0361832300291,-0.0948674725065,-0.101994029291,-0.1879086492,0.0148841513965,-0.0524895585472,-0.00135952191416,-0.0864100063711,0.0505770994863,0.035295286664,-0.0039572487776,0.0516400077847,0.0368469220187,0.0703298134098,0.0625540944569,-0.0852835692556,-0.111626951399,-0.045354331876,-0.071700419923,0.00290625907109,0.0383957362147,0.0956064418684,0.0993618278367,0.106104336927,0.0346756117434,0.0996563943981,-0.0187456856736,0.011723480294,0.0334708626571,-0.0615508457151,-0.136686424972,-0.10727072097,-0.0422085196791,-0.0865209161819,0.0325643552913,0.067670195414,-0.0019472176335,-0.0107403823338,-0.0218723206696,0.0691288549204,-0.110597846011,-0.0433228015516,-0.0740298432336,-0.0916405966916,-0.0852564494929,0.0458268562608,0.0863540885528,-0.00170824995419,0.0392742258322,0.157054986224,-0.0307570886323,0.00160874998113,0.0394749426372,0.0235772018369,0.189737666323,-0.0292637710773,0.14528813693,0.0599780858759,0.0308532054825,-0.00950244779627,-0.0903645521726,0.0585269862538,0.008699170549,0.103548924675,-0.116109204774,-0.188386563942,-0.0772197602322,-0.0869551213864,0.0270321531131,-0.101157417027,-0.0651411089426,-0.070309923566,-0.0511798587187,0.0366167174055,0.0371190257162,0.0492922195784,-0.00880348421997,0.0800273910684,-0.121931794173,0.0474263561984,-0.0136751162321,0.0619445932234,0.084718941433,-0.0895683780863,-0.0423945203943,0.0357828079288,0.0851558411001,0.0127640719171,-0.0835736987408,-0.0382966766062,0.0609835735783,0.0359293094896,-0.114140326583,-0.177712073479,-0.154285143316,-0.0291890464663,-0.177022745897,-0.144138220706,-0.154968166132,-0.0931310563027,-0.0242722662785,0.0198635581757,0.155006976503,0.0748854751984,-0.0734434092603,0.115838762361,0.0514762528221,0.0198768148991,0.078532909008,0.0991281289405,-0.0246342097111,0.0599199487808,0.029545541332,-0.0523483440813,0.0994778843262,-0.110666624813,-0.0417985878274,-0.135481256772,-0.0656813242478,-0.203806976831,-0.0899583864215,-0.175924471582,-0.29138606775,-0.127519815923,-0.172544589479,-0.136619830324,-0.0851046791542,-0.0972583110133,-0.18120343867,0.0281246740182,0.0499217935322,0.105396820201,0.055442025723,-0.00802583737685,-0.024443193795,0.0515362845641,0.0590690960185,-0.0713963813843,0.12678634367,-0.00675553954092,0.012806307663,-0.0286745241703,0.0118247040488,-0.0231021379792,-0.0222823823427,-0.0339847373862,-0.138695319877,-0.211331836533,-0.13659552781,-0.183210322763,-0.241313346898,-0.279669771408,-0.127240421289,-0.140516805587,-0.160783260598,-0.0614365141206,-0.0676465379673,-0.027389719969,-0.0304221138341,0.000835289773605,0.077475382379,0.0292744416289,0.0199429784771,0.121086450758,-0.0433626025261,-0.0239793501422,0.0989057252933,0.019301472252,0.0359299440933,-0.00638187295182,0.126449991862,0.0252815104761,-0.0244035866143,-0.162814563277,-0.153853950762,-0.119459549863,-0.210417833316,-0.161880488348,-0.218089736676,-0.455126869758,-0.253064025343,-0.165546433073,-0.0914687751554,-0.179233382271,0.0632694240968,-0.0693212527977,-0.10565560942,-0.0359876006917,-0.0743438251136,0.115606307636,0.134919751149,0.0642006480749,-0.18171552489,-0.020938069717,-0.00388611931611,-0.0144961958718,-0.0663208343972,-0.0116283852069,-0.0580109935573,0.106377634497,0.0323342498578,-0.102976825093,-0.174283041239,-0.163817963702,-0.194149948459,-0.218630077045,-0.156443745863,-0.170102638236,-0.144521121775,-0.156007390353,-0.195106345356,-0.112800849337,-0.107637786721,-0.0811366811443,0.0860715731576,-0.0933906623795,0.0560968455855,-0.0414760578949,-0.0255272519935,-0.114630895723,-0.00842143651668,-0.123330344505,-0.0587252100795,-0.0105545204494,0.133237146874,0.0272798729208,-0.025740631612,0.00418856457586,-0.0689223288493,-0.134116262061,-0.20716151064,-0.228219609834,-0.0759753308798,-0.0915690207748,-0.124402919673,-0.140203905428,-0.236008859852,-0.209015579022,-0.21927585358,-0.21653099847,-0.119288594176,-0.239334625684,-0.0228428825256,0.116293405647,0.0707205175261,-0.0202121210157,-0.0402646113542,-0.0791805972998,-0.0390861168526,-0.00357114190148,0.0410195473284,-0.0290398979362,0.00843685832114,-0.0896524447591,-0.0874851475209,-0.0666550316331,-0.0921676162787,-0.137827787853,-0.012015117964,-0.259194036707,-0.16289915402,-0.151835329465,-0.168417609924,-0.248034264848,-0.146250033632,-0.11517895194,-0.194188056988,-0.175117839336,-0.1486123796,-0.159373287731,-0.0239529713013,-0.167776899652,-0.112579845931,0.0164687218473,-0.0223749549959,0.028176077777,0.111875853336,-0.0497646429518,-0.0802563580333,0.0107388203359,-0.0953606657664,-0.163344021879,-0.0368544065116,-0.0687571692722,-0.0933986949307,-0.0422945937444,-0.102793085064,0.0377889224152,-0.098165714219,-0.117494955358,-0.110686105669,-0.221979691638,-0.124669824563,-0.197048304256,-0.188968348732,0.0234254886875,-0.11000458884,0.0319741748928,-0.053367773337,-0.125597747042,-0.0198080898227,-0.0101404421928,-0.15505913201,-0.0408834865806,0.0047427782866,-0.0294407696946,-0.0127333010858,-0.0111483669217,0.0642581347763,-0.099756736183,-0.076935673793,-0.0126468822283,-0.14779913929,-0.0430456819497,0.0457652415713,-0.188314561472,-0.0645097634157,-0.243303161965,-0.247947784821,-0.325629100203,-0.209168939106,-0.110008509858,-0.16648345282,-0.0738895366429,-0.0232008151689,0.0266931790044,-0.06466976229,-0.0916349915452,-0.0165297929225,-0.119701968437,-0.049018549661,0.010489257717,0.0238954407849,0.0843905699732,-0.0129375536542,0.0214439943771,0.0173691266372,-0.0960241315223,-0.0503320818468,-0.132195937424,0.0120612376734,-0.193335446626,-0.165473543508,-0.0866588134043,-0.0831674558938,-0.240475287492,-0.264646319246,-0.182781827449,-0.276626570265,-0.0771475729308,-0.111174097659,-0.148806468332,-0.0107886563797,-0.0337320725525,-0.105200937989,-0.0251115624896,0.0653358084332,0.0212999430003,0.0449624562756,0.0589735443993,0.0486748979115,-0.0112508019144,-0.0776203836706,0.0775077768595,0.0215772977956,-0.111946074776,-0.0251500744723,-0.108830449103,0.055765094326,-0.124480280006,-0.149488316682,-0.115808425109,-0.0183474520014,-0.114507009328,-0.32404370738,-0.270532284939,-0.226484533809,-0.024430581375,-0.14368754812,-0.000809179804108,-0.0893828998706,-0.0108849820925,0.0153094490527,0.0792032570677,-0.0158532004119,-0.138252408769,0.0169999624891,0.0372701718813,-0.00172126116362,0.0525610361057,0.0760374577405,-0.0522140259656,-0.0722362328086,0.00634611112656,-0.211511238476,-0.039495848726,-0.106858755305,-0.0679216992845,-0.104895346144,-0.190541304866,-0.141356423303,-0.233784648955,-0.284883902887,-0.246534862299,-0.0652763233329,-0.105520646067,-0.163931579036,-0.0636993624276,0.0312253852764,-0.0549693439666,-0.0368987387037,-0.0978831027532,-0.156204690596,0.0326953883782,-0.149973919978,0.0217134998214,-0.0721348339989,0.0356930568366,0.0269695352437,-0.0845578428882,-0.0178325411252,-0.0770696081352,0.0439446889376,-0.0390159834392,-0.0156082235844,-0.161460573425,-0.129373693679,-0.254074932865,-0.120587350816,-0.127873049464,-0.247692406842,-0.0705198122255,-0.190636347162,-0.236458906632,-0.156647699692,-0.126559659021,-0.0927683837005,-0.1819878359,-0.159779938516,0.0351558069293,-0.100177223418,-0.0316564222175,0.129634765378,-0.0178696016414,-0.0576690466632,-0.0147731414877,-0.0493963253875,0.13492151401,0.0260002182943,0.0583549082738,-0.180596770648,-0.120145451951,-0.0389578574754,-0.0939336010374,-0.24879934956,-0.0635104816311,-0.235253260688,-0.124752551329,-0.0692930178429,-0.195171955187,-0.0564962060098,-0.0601770326739,-0.0929200731608,-0.207090568357,-0.122054841502,-0.111907849953,0.0798994414921,-0.122978009858,-0.0701899297217,-0.0312137914479,-0.123155535474,0.0834798916804,0.0141567838006,-0.0980817471722,0.0127286893522,0.0953679585436,-0.0248474922027,-0.100724926368,-0.0164746744513,-0.0296700451474,-0.0860995394744,-0.166743617449,-0.0568951353334,-0.197504739553,-0.223281153762,-0.130203508098,-0.212807305198,-0.18240995409,-0.212933387531,-0.182833317506,-0.159772968012,-0.0428570784621,0.0746040514511,0.0459248251938,-0.0895440295898,-0.068207998723,-0.0414285240589,-0.0758559672781,0.0644118437842,-0.0603424590218,-0.0125882674538,0.0156140520555,-0.0643941248977,-0.115879622266,0.00210194760747,-0.0320974365786,-0.045847196952,-0.00645919182198,0.0164004929872,-0.097030202177,-0.190986804893,-0.177652014969,-0.130266782385,-0.11414058929,-0.128187159452,-0.298040298873,-0.120361144741,-0.130317213272,-0.205842717263,-0.0630231162264,-0.0241648147417,-0.0773409447642,-0.0938044710179,-0.127413970651,0.0335299684356,0.00881145225341,0.0334634426607,-0.00245133870994,0.082888045228,-0.0989642870868,0.00911609189225,0.00657646046884,-0.10432429863,0.0711961815441,-0.154916115004,-0.0178610238949,-0.0718467631116,-0.027357862089,-0.0222943405464,-0.163406666789,-0.238666156846,-0.0714001558062,-0.123468868638,-0.134449824118,-0.186745619836,-0.0135366573315,-0.138287141877,-0.101266174501,-0.0683789329205,0.0203318570391,-0.104903871328,-0.0133944809614,-0.103618149366,-0.0186529846335,0.0108655161097,0.113353914896,0.0489438799409,-0.0339372762471,-0.0815056451009,0.071840003485,-0.106270592325,0.0721650502858,0.00137705286773,0.0108173531031,-0.161311884997,-0.168762878844,-0.0644172742189,-0.123920202937,-0.0124053176292,-0.0929048197596,-0.188002033974,-0.0929257108601,-0.0481544934087,-0.0879312260553,0.0499475251156,-0.124075568809,0.0763425984911,-0.00201662483133,0.11092600187,0.110203101337,-0.00516389281754,0.0733946842554,-0.0387379873339,0.0924843905028,0.0575105825673,0.0257705649772,-0.0234207722124,-0.00783404237343,-0.0773422018105,-0.0527158273793,0.0209974354637,-0.0698830546609,-0.0706986954857,-0.000925546402029,-0.0591165506012,-0.047650374746,-0.0718792609822,-0.123174130539,-0.244634722756,-0.121576585532,0.00952069269603,-0.026863925657,-0.063066783049,-0.12134766051,0.0549260487456,-0.119698750575,0.000685259978746,0.0429248109689,0.0357384314281,-0.0224235162293,0.166076661098,-0.0329312429705,-0.0259184334591,0.0484601148897,-0.0194806610887,0.106658903346,-0.0495635666767,0.0562581735763,-0.0465277347121,-0.0745590343652,-0.047911599568,-0.0139790380413,-0.050874592213,-0.12352692509,-0.0405859268683,-0.0597647932615,0.0381902072093,-0.201719641413,0.0768658505039,-0.00841616691243,-0.0077118284547,0.0626169736604,-0.0851251601894,0.0269197589468,0.0364227669251,-0.0923629873767,-0.014935284008,-0.0880448490989,0.0228394636213,0.00561784705059,0.058864666704,-0.0668503706736,-0.172216434145,-0.0240766075151,0.0388638007285,-0.0304346918881,0.151794031445,-0.10356397032,-0.162534333146,0.0241117681629,-0.146314784758,-0.109833581138,0.123834281163,-0.00894363121174,0.0566839117991,-0.14541277146,-0.023665886293,-0.152289763802,0.0276439320615,-0.0211191527774,-0.00351710126663,-0.0446230323907,-0.00975203213796,-0.111039088822,0.0456139475445,0.0857372246807,0.184515235667,-0.0123387966684,-0.0421835385209,0.0885702878856,0.151211487524,0.0997732723017,-0.055763021999,-0.0020798688902,-0.126297869363,0.0954419950701,0.0996726150135,-0.0154585955384,-0.151912244081,0.0431992647027,-0.102447030534,-0.0819709738642,-0.183193943542,-0.021040166339,-0.0850967785763,-0.0623951446493,0.0368315662596,0.0530137478734,-0.0913210019714,-0.0421419609761,-0.0199181109221,0.0481691187229,-0.120653564415,-0.0353723756645,0.0455946603994,0.00454139765695,-0.099068587794,-0.00889880641251,0.0876372431459,0.0314034247643,0.0182693414417,-0.0458952353042,-0.134910043754,-0.0306779371799,0.0023598714088,0.0148616293865,0.0906181582124,-0.0722725096833,-0.0864221122982,0.126450138451,-0.00538794615779,0.0860463621197,0.0664597036749,0.0851480723849,0.0459891665104,0.0773580807056,-0.120866808275,-0.223297944965,-0.0102593956341,-0.00559019852624,-0.00703519717772,-0.0690553822826,0.0150880096468,-0.143696869501,-0.0558288518777,-0.0223267689993,0.0286147123253,-0.0674097782192,0.13353783848,-0.027167928248,0.0725951605173,-0.072151772588,0.146956595102,-0.039356847791,-0.0938300680185,-0.0123584709808,0.101230801571,-0.0739530865207,0.0272571813709,0.0412331814387,0.068705398022,-0.0916910299818,-0.0162280263218,-0.00509453577308,-0.041736886797,0.0668357392235,-0.0296220041087,0.0617007910504,-0.116132646104,0.047166705754,-0.0717320809067,-0.062426598459,0.025022599891,-0.0106533512592,-0.0201343464851,0.0929671157538,-0.0471972138699,-0.0698808294001,0.0114597339801,0.0103036963172,-0.11247746869,-0.0439043914299,-0.145046975599,-0.0101568373855,-0.0873756473919,0.057490813153,-0.0522347987685,-0.0441177528529,-0.042740051688,0.00344219732145,0.00123249572522,0.0883298773438,-0.112393464375,0.112318430033,-0.0581723476491,0.0282475917672,0.0262704254694,0.0840402523571,-0.128919652037,-0.0260297637005,0.0896916958866,-0.114993864651,0.049291807676,-0.0702608533722,0.0932601344653,0.013544837259,0.109485079898,0.0439367584077,0.117168782929,0.0287655124709,0.00226618758373,0.155811823925,-0.0630570811314,0.0949108322938,0.039761306762,-0.0667786670601,-0.038449924077,-0.0114570702444,-0.0997256833266,-0.0173284525637,-0.0113700909187,0.152437966305,-0.100319718383,0.00381220811262,0.00738219115449,-0.0677556612558,0.00953439905643,0.0878197754524,-0.106374637573,0.0118852020465,0.0816702928795,-0.0817484334173,0.125819113932,0.051927604413,0.00330702718613,0.105415222039,0.0390748209141,0.0474277476474,0.00894383435726,-0.0944088993397,-0.148321337034,0.027486961932,0.0558542747463,0.0336885921716,-0.0626292512089,-0.0962208156875,0.0419863683673,-0.139821264073,-0.0506615540684,-0.0313434188958,0.0212625289484,-0.0652863369068,-0.104657139784,-0.0541776833135,-0.0327824562096,0.00846197922641,0.0189519711077,-0.0307024987686,-0.0765361087281,-0.00257250975273,0.0374815767347,-0.00598073833036,0.0486044397996,-0.0258321837185,-0.0712920789465,-0.00868475923331,0.077809974844,0.0170126398176,0.00810114292241,-0.14206433783,-0.0862300041678,-0.0918385063721,-0.186051661773,-0.101429474216,-0.108234263384,-0.0216035698837,0.0425847919913,0.0126096764555,0.0563511651924,0.000742271765644,-0.115931631447,-0.0293117278865,0.0623187798387,0.0392955344507,0.00661716217703,0.00921031243817,-0.0467456582293,-0.0334926895843,0.00750047263177,-0.0343132060525,-0.0297112810188,0.103942206902,-0.0660217565252,-0.0466356117786,0.00519822184601,-0.0454097272941,-0.0798913078749,-0.101170069522,-0.176827949746,-0.126947263553,-0.21877711747,-0.107517226376,-0.0312389161576,-0.0951084590377,0.0868248704513,-0.132590187472,-0.0229599100392,0.0268517983252,-0.0175911488931,-0.0129983790398,0.0374295826423,0.0410090307814,0.0271627636152,-0.0736359542304,0.0424968536868,-0.0185422731768,0.0171083362379,0.0374479780045,-0.0126530600253,0.092007869227,-0.0104858420744,0.0413580484359,-0.0643955623982,-0.00351224871552,-0.167156149162,-0.197165336729,-0.269678737993,-0.268898155337,-0.045249198354,-0.075231759356,-0.0812053091313,-0.00729603918146,0.0610754490888,-0.0285587431212,0.0654592012567,0.0778639725629,-0.00898334083381,-0.0492490809942,0.141510287891,-0.0503649926894,-0.0705674206728,-0.0165401494763,0.0223630209605,-0.0166162272472,-0.125228004619,0.101338405836,-0.0908469069405,-0.151297964419,-0.140197400698,-0.193427299999,-0.0524635645683,-0.137538867851,-0.23284027427,-0.10097417203,-0.141580966303,-0.217299534066,-0.196220228314,-0.116606287347,0.0095286857141,-0.0603094110223,-0.0919503834213,0.130833323987,-0.0710847949927,-0.129952914324,-0.0394198501841,-0.0131029700288,0.0576409275984,-0.0689064765625,-0.00487600912185,-0.113935739292,-0.0507044478477,-0.0163566196724,0.0646099704968,0.0420960652635,0.0133081552757,-0.0414969306431,-0.141361718787,-0.0186162916024,-0.0478699321552,-0.234502047132,-0.195737466651,-0.053802990767,-0.148161765702,-0.190616834602,-0.177788104042,-0.252244949286,-0.161581490476,0.00615605868234,-0.0791047097692,-0.0662939142265,0.0167444714098,-0.0633089046566,-0.098008196806,-0.0318544738599,-0.0991745312158,0.0099102134925,0.0260797613973,0.0984313053325,0.0270800138087,0.048059371872,0.0592188431206,-0.0478306366759,-0.0950273892708,-0.0686198752426,0.029267636251,-0.155193440336,-0.0400522495174,-0.0611212317302,-0.325891894417,-0.144796843034,-0.239349899217,-0.0974781051757,-0.263572916327,-0.234865288531,-0.314213306962,-0.0506750588638,-0.167259827961,-0.0794917627947,-0.16299977085,0.00955256694686,-0.0385183727291,-0.088970971501,-0.0148465065183,-0.0269187971177,-0.0838922679604,-0.0475360971674,0.060681242243,-0.104886128508,-0.0251698076868,-0.0913524165591,-0.00486118496708,-0.0690202841533,-0.170173815809,-0.21195909888,-0.183572094465,-0.0770657647196,-0.231919660322,-0.137012309744,-0.231302429119,-0.11364180151,-0.196246841289,-0.134718525342,-0.094321545182,-0.0848205054092,-0.114371633711,-0.136025918897,-0.151462473254,-0.0340809656998,0.0648295720267,-0.0616831902194,0.152730548109,0.0650370212516,0.117810313147,-0.118088575775,0.116446067366,-0.0116472525249,0.0454726272687,0.0428615015612,-0.0259873516024,-0.175418459548,-0.0630471385322,-0.0388552119771,-0.115798067322,-0.0797796255014,-0.14904667208,-0.258042674978,-0.331430374213,-0.178894261936,-0.153274429606,-0.101444881105,-0.179654310301,-0.148830930871,-0.135827906037,-0.163920268656,-0.0685981657195,0.0787712170234,-0.103235264679,0.0086301287379,0.0359533782585,0.0685076730129,-0.0902147909258,-0.00854247257926,0.107795094614,-0.102980305922,0.000175127587996,-0.0969974189521,-0.0390991514985,-0.204896991927,-0.0514952175186,-0.146372896336,-0.0245266956259,-0.182232244136,-0.120374873346,-0.0607810562983,-0.217790627044,-0.241576004149,-0.274873790223,-0.260370375118,-0.102951070764,-0.252648877053,-0.147313768317,-0.0545228148467,-0.0689687252514,-0.257244751322,0.0229305655411,0.0348377835147,-0.0209753538962,0.143707489316,0.146813827522,-0.037452549492,-0.0271312616058,0.00479023250569,-0.0345977102211,-0.0446866935431,0.0539900117903,-0.0476279201815,-0.0237550923306,-0.0754790428234,-0.150161598049,-0.19606719542,-0.167689365647,-0.142034721446,-0.228733167527,-0.324140671265,-0.174044195003,-0.129837209499,-0.214337322399,-0.15830952767,-0.0517316634246,-0.0535609025706,-0.123259156714,-0.155081311322,-0.0927133004223,-0.10492718844,-0.00409164680213,0.0425827861659,-0.00914185127035,0.0217160127361,0.0838477628837,0.0208787337653,-0.0216853288953,-0.020187394195,-0.00579954371828,-0.218263314136,-0.142106610646,-0.110510148296,-0.198265217872,-0.107773704059,-0.162886536177,-0.284494049907,-0.345429434083,-0.288913922809,-0.100326194283,-0.211787236075,-0.067044147946,-0.0646075542898,-0.0597741025925,-0.183765634364,-0.123937278022,-0.225846294679,0.0425046043284,-0.086182195804,-0.0798358520574,0.0756467315659,-0.058345981616,-0.0656017772102,0.0703581244783,-0.0595746801939,-0.0353849863293,-0.147740821322,-0.0877655457287,-0.161855649073,-0.0616797805589,-0.0803124522676,-0.0807783757514,-0.0952129835354,-0.101069356508,-0.298899387116,-0.347450647628,-0.267812071866,-0.280568012125,-0.10245864474,-0.216399437051,-0.12070422079,-0.106431700872,-0.176940783797,-0.063569930856,-0.0260315559328,-0.0569640036443,0.00965412531018,0.109002845251,-0.00581933849767,0.118709748396,0.0715152038654,0.0259462044029,0.0418778627202,-0.0247626353847,-0.0420022496434,-0.0317949339545,-0.105761600631,-0.00131122202747,0.021630929063,-0.129923285734,-0.158296170107,-0.175041190829,-0.299222180922,-0.31594171834,-0.0990878980178,-0.20552844665,-0.186124709673,-0.113030036802,-0.0743308802462,-0.0746790777426,-0.0840086406116,-0.034083253148,0.0223311087783,-0.000220260904739,0.0940263921194,0.0727901779082,0.0154967266445,0.0516893332032,0.0478251696233,0.0331646037998,-0.0509639712328,0.0769190228071,0.0242767995612,-0.109500260676,-0.0677180065501,-0.0699285893156,-0.0239997326285,-0.0831114353758,-0.139078024289,-0.277853211544,-0.297339797007,-0.36257116871,-0.230012765278,-0.223991884001,-0.137309273713,-0.0507568425473,-0.0912228227695,0.0295327167749,0.0086290576894,-0.0450037012918,0.118507607654,-0.0860753359626,-0.00389637813854,-0.0687816832878,0.0237299962626,0.0551642831866,-0.0236251489603,-0.169698739143,0.0669456853372,-0.0803680877243,-0.017114789073,-0.0899775089486,0.00959444468739,-0.0723125711479,0.019755496124,-0.186750870625,-0.229739121181,-0.183718392032,-0.172819916883,-0.214879530669,-0.266267768928,-0.204887787833,-0.278048655409,-0.250027455086,-0.158434740701,-0.130564609587,-0.0630676166135,0.0358594368315,0.112552319839,-0.049850783073,-0.0563922612927,-0.0417569696574,-0.0146696135509,0.0307980182326,-0.0689284628495,-0.0246749487936,-0.00633324402962,-0.0356177975609,0.0568278543412,-0.0977632995306,-0.01194368497,-0.0351634737232,-0.142964561752,-0.174237508606,-0.134924187753,-0.207837547008,-0.248342847289,-0.284467986491,-0.102322136486,-0.143029879766,-0.169105036247,-0.194600236273,-0.0422637855967,0.0297027982511,0.0334995377965,0.10287241894,-0.2046938635,0.0278604475164,-0.0371152318436,0.0108225391983,-0.0607516883838,-0.121472644458,-0.02776483431,0.0533067725509,0.00665428953105,-0.0371020827404,-0.0711860045257,-0.00804959902046,-0.0685492257955,-0.133087003136,-0.214000596337,-0.164480857215,-0.102328488102,-0.145205822106,-0.115591969448,-0.235454645893,-0.227829162439,-0.184941938021,-0.0334151133486,-0.16089631203,-0.188347899538,0.00971111468614,-0.0456874422965,0.037523740685,-0.0112650106268,0.00502924539192,0.113273928529,-0.0407100031297,0.0578602395154,-0.0756744384653,-0.0222191732973,0.0129357389766,-0.0522048679439,0.0292582872052,0.0764105560178,-0.0826391967145,-0.102391992475,-0.106701779629,-0.15362541876,-0.292661481438,-0.220428220483,-0.18892761291,-0.202237966852,-0.232038540478,-0.0714162171628,-0.0696109383536,-0.0730711710859,-0.127623376241,-0.103761070617,0.0685076573232,-0.0758499672634,0.000553465654011,-0.0204430613111,0.0686645922397,-0.107818176545,0.172202589864,0.0215182952437,-0.0626310968061,0.085127491653,0.186668553322,0.0802952987373,-0.100446814078,0.0654484296864,0.149814105574,0.0104503015735,-0.0802105411213,-0.120968838207,-0.246918425325,-0.140315304505,-0.205985968738,-0.119952106768,-0.22563577999,-0.198258248289,-0.324067283615,-0.0943515757624,-0.131752566754,-0.103201589234,-0.169160939534,0.0021924634801,0.100714851778,-0.0326674197611,0.022551935993,0.047797034142,0.0503674264803,0.0407684826072,0.0525513553213,0.102588213123,-0.0512158315699,-0.0325712984993,0.0611821973608,-0.0235602330285,0.0856364987882,0.0265724837183,-0.0557086614238,-0.0900997684468,-0.0517030399095,-0.14388638585,-0.207714475341,-0.0960772068849,-0.25744997618,-0.173643886745,-0.134220901945,-0.158928159735,-0.151892636552,0.0301585861121,-0.0721354570283,0.0372221241136,-0.0495307959262,0.0115025155264,-0.00188529735437,0.0525138889512,-0.009555318491,0.11847470176,-0.08857755841,0.0429958702583,0.00370890316067,0.0430647657654,-0.110686623852,6.27551971181e-05,-0.118565032105,0.124117912721,-0.0241353595694,-0.166912994487,-0.166256344379,-0.0932005697201,-0.105473970869,-0.110652585827,-0.0892756126559,-0.0983732948299,-0.0722043264927,-0.154319904444,-0.0603386929246,0.0133362710216,0.0648188524528,0.0547473574322,